Read testdata/2000.tree: 2000 taxa
  Traversal buffer: 0(-1) 1(-1) 2000(0) 2(-1) 3(-1) 2001(1) 2002(2) 4(-1) 5(-1) 6(-1) 2003(3) 2004(4) 7(-1) 8(-1) 9(-1) 10(-1) 2005(5) 2006(6) 2007(7) 11(-1) 12(-1) 13(-1) 2008(8) 2009(9) 14(-1) 15(-1) 16(-1) 17(-1) 18(-1) 2010(10) 2011(11) 19(-1) 2012(12) 2013(13) 20(-1) 21(-1) 2014(14) 2015(15) 22(-1) 23(-1) 2016(16) 24(-1) 25(-1) 2017(17) 26(-1) 2018(18) 2019(19) 2020(20) 2021(21) 27(-1) 28(-1) 29(-1) 30(-1) 31(-1) 2022(22) 2023(23) 2024(24) 2025(25) 2026(26) 32(-1) 33(-1) 34(-1) 35(-1) 36(-1) 2027(27) 2028(28) 37(-1) 2029(29) 2030(30) 2031(31) 2032(32) 2033(33) 38(-1) 39(-1) 40(-1) 41(-1) 2034(34) 2035(35) 2036(36) 42(-1) 43(-1) 44(-1) 2037(37) 2038(38) 2039(39) 45(-1) 46(-1) 47(-1) 2040(40) 48(-1) 2041(41) 49(-1) 2042(42) 2043(43) 50(-1) 2044(44) 51(-1) 2045(45) 2046(46) 52(-1) 53(-1) 54(-1) 2047(47) 2048(48) 55(-1) 2049(49) 56(-1) 2050(50) 57(-1) 58(-1) 59(-1) 2051(51) 60(-1) 61(-1) 2052(52) 2053(53) 62(-1) 63(-1) 2054(54) 2055(55) 2056(56) 2057(57) 64(-1) 65(-1) 66(-1) 67(-1) 2058(58) 2059(59) 68(-1) 69(-1) 70(-1) 2060(60) 2061(61) 2062(62) 2063(63) 2064(64) 2065(65) 2066(66) 71(-1) 72(-1) 2067(67) 73(-1) 74(-1) 2068(68) 2069(69) 2070(70) 75(-1) 76(-1) 2071(71) 77(-1) 2072(72) 78(-1) 79(-1) 2073(73) 80(-1) 81(-1) 82(-1) 83(-1) 2074(74) 2075(75) 84(-1) 85(-1) 2076(76) 86(-1) 2077(77) 2078(78) 2079(79) 2080(80) 87(-1) 88(-1) 2081(81) 89(-1) 90(-1) 91(-1) 92(-1) 2082(82) 93(-1) 94(-1) 95(-1) 2083(83) 2084(84) 96(-1) 97(-1) 2085(85) 2086(86) 2087(87) 2088(88) 2089(89) 98(-1) 99(-1) 100(-1) 101(-1) 102(-1) 2090(90) 2091(91) 103(-1) 104(-1) 2092(92) 2093(93) 2094(94) 2095(95) 105(-1) 106(-1) 2096(96) 2097(97) 2098(98) 2099(99) 107(-1) 2100(100) 2101(101) 2102(102) 2103(103) 108(-1) 109(-1) 2104(104) 110(-1) 111(-1) 2105(105) 2106(106) 112(-1) 113(-1) 2107(107) 2108(108) 114(-1) 115(-1) 2109(109) 116(-1) 117(-1) 118(-1) 2110(110) 119(-1) 2111(111) 2112(112) 120(-1) 121(-1) 2113(113) 122(-1) 2114(114) 2115(115) 2116(116) 123(-1) 124(-1) 2117(117) 125(-1) 126(-1) 127(-1) 2118(118) 2119(119) 128(-1) 129(-1) 2120(120) 2121(121) 130(-1) 131(-1) 2122(122) 132(-1) 2123(123) 133(-1) 2124(124) 2125(125) 134(-1) 135(-1) 136(-1) 2126(126) 2127(127) 2128(128) 137(-1) 138(-1) 139(-1) 140(-1) 2129(129) 2130(130) 2131(131) 141(-1) 142(-1) 143(-1) 144(-1) 145(-1) 2132(132) 146(-1) 147(-1) 148(-1) 2133(133) 149(-1) 2134(134) 2135(135) 2136(136) 2137(137) 2138(138) 150(-1) 2139(139) 151(-1) 152(-1) 2140(140) 153(-1) 154(-1) 2141(141) 2142(142) 155(-1) 156(-1) 157(-1) 158(-1) 2143(143) 159(-1) 2144(144) 2145(145) 2146(146) 2147(147) 160(-1) 2148(148) 2149(149) 161(-1) 2150(150) 162(-1) 163(-1) 164(-1) 2151(151) 2152(152) 165(-1) 2153(153) 2154(154) 2155(155) 166(-1) 167(-1) 168(-1) 169(-1) 170(-1) 171(-1) 172(-1) 2156(156) 173(-1) 2157(157) 174(-1) 175(-1) 2158(158) 176(-1) 2159(159) 177(-1) 2160(160) 2161(161) 2162(162) 2163(163) 2164(164) 2165(165) 2166(166) 2167(167) 2168(168) 2169(169) 2170(170) 178(-1) 179(-1) 180(-1) 181(-1) 2171(171) 2172(172) 2173(173) 2174(174) 2175(175) 2176(176) 182(-1) 183(-1) 2177(177) 184(-1) 185(-1) 186(-1) 187(-1) 2178(178) 188(-1) 189(-1) 190(-1) 191(-1) 2179(179) 2180(180) 2181(181) 2182(182) 192(-1) 193(-1) 2183(183) 2184(184) 2185(185) 2186(186) 194(-1) 195(-1) 2187(187) 2188(188) 2189(189) 2190(190) 196(-1) 197(-1) 198(-1) 2191(191) 199(-1) 200(-1) 201(-1) 202(-1) 2192(192) 2193(193) 203(-1) 204(-1) 205(-1) 206(-1) 207(-1) 208(-1) 2194(194) 2195(195) 2196(196) 2197(197) 2198(198) 2199(199) 209(-1) 2200(200) 210(-1) 211(-1) 2201(201) 212(-1) 2202(202) 213(-1) 2203(203) 214(-1) 215(-1) 216(-1) 217(-1) 2204(204) 2205(205) 2206(206) 2207(207) 218(-1) 219(-1) 220(-1) 2208(208) 2209(209) 221(-1) 222(-1) 223(-1) 224(-1) 2210(210) 2211(211) 2212(212) 2213(213) 225(-1) 2214(214) 226(-1) 227(-1) 2215(215) 2216(216) 228(-1) 229(-1) 230(-1) 2217(217) 2218(218) 231(-1) 2219(219) 2220(220) 2221(221) 2222(222) 232(-1) 2223(223) 233(-1) 2224(224) 2225(225) 234(-1) 235(-1) 236(-1) 2226(226) 237(-1) 2227(227) 238(-1) 2228(228) 2229(229) 2230(230) 239(-1) 240(-1) 241(-1) 242(-1) 2231(231) 2232(232) 243(-1) 244(-1) 2233(233) 245(-1) 2234(234) 246(-1) 247(-1) 248(-1) 249(-1) 250(-1) 251(-1) 2235(235) 2236(236) 2237(237) 2238(238) 2239(239) 2240(240) 252(-1) 253(-1) 254(-1) 2241(241) 2242(242) 255(-1) 2243(243) 256(-1) 257(-1) 2244(244) 258(-1) 2245(245) 2246(246) 2247(247) 259(-1) 260(-1) 2248(248) 261(-1) 262(-1) 2249(249) 2250(250) 263(-1) 2251(251) 264(-1) 2252(252) 265(-1) 266(-1) 2253(253) 267(-1) 2254(254) 268(-1) 269(-1) 2255(255) 2256(256) 270(-1) 271(-1) 2257(257) 272(-1) 273(-1) 274(-1) 2258(258) 2259(259) 275(-1) 2260(260) 2261(261) 2262(262) 276(-1) 277(-1) 278(-1) 2263(263) 279(-1) 280(-1) 281(-1) 282(-1) 2264(264) 2265(265) 283(-1) 284(-1) 2266(266) 285(-1) 2267(267) 286(-1) 2268(268) 2269(269) 2270(270) 2271(271) 2272(272) 287(-1) 2273(273) 288(-1) 289(-1) 2274(274) 290(-1) 2275(275) 2276(276) 291(-1) 292(-1) 2277(277) 293(-1) 294(-1) 2278(278) 295(-1) 296(-1) 297(-1) 298(-1) 299(-1) 2279(279) 2280(280) 2281(281) 2282(282) 2283(283) 2284(284) 2285(285) 300(-1) 301(-1) 302(-1) 2286(286) 2287(287) 2288(288) 2289(289) 303(-1) 304(-1) 2290(290) 305(-1) 2291(291) 2292(292) 2293(293) 306(-1) 307(-1) 2294(294) 2295(295) 2296(296) 2297(297) 2298(298) 2299(299) 2300(300) 2301(301) 308(-1) 309(-1) 310(-1) 2302(302) 2303(303) 311(-1) 312(-1) 2304(304) 313(-1) 2305(305) 314(-1) 2306(306) 2307(307) 315(-1) 316(-1) 317(-1) 318(-1) 2308(308) 2309(309) 2310(310) 319(-1) 320(-1) 2311(311) 2312(312) 321(-1) 322(-1) 323(-1) 324(-1) 325(-1) 326(-1) 2313(313) 327(-1) 2314(314) 2315(315) 2316(316) 2317(317) 328(-1) 329(-1) 2318(318) 330(-1) 331(-1) 332(-1) 2319(319) 2320(320) 2321(321) 333(-1) 334(-1) 2322(322) 335(-1) 336(-1) 337(-1) 338(-1) 2323(323) 2324(324) 2325(325) 2326(326) 339(-1) 340(-1) 341(-1) 342(-1) 2327(327) 2328(328) 2329(329) 343(-1) 2330(330) 344(-1) 2331(331) 2332(332) 345(-1) 346(-1) 2333(333) 2334(334) 2335(335) 347(-1) 2336(336) 2337(337) 348(-1) 349(-1) 2338(338) 2339(339) 2340(340) 2341(341) 2342(342) 350(-1) 351(-1) 2343(343) 352(-1) 353(-1) 354(-1) 2344(344) 355(-1) 356(-1) 357(-1) 2345(345) 358(-1) 2346(346) 2347(347) 359(-1) 360(-1) 2348(348) 2349(349) 2350(350) 2351(351) 361(-1) 362(-1) 2352(352) 363(-1) 364(-1) 2353(353) 365(-1) 366(-1) 2354(354) 2355(355) 2356(356) 367(-1) 2357(357) 2358(358) 2359(359) 368(-1) 369(-1) 370(-1) 2360(360) 2361(361) 371(-1) 372(-1) 373(-1) 2362(362) 2363(363) 2364(364) 2365(365) 374(-1) 375(-1) 2366(366) 376(-1) 377(-1) 378(-1) 2367(367) 2368(368) 379(-1) 380(-1) 381(-1) 382(-1) 2369(369) 2370(370) 383(-1) 384(-1) 385(-1) 2371(371) 2372(372) 2373(373) 2374(374) 2375(375) 386(-1) 387(-1) 2376(376) 388(-1) 389(-1) 2377(377) 390(-1) 391(-1) 2378(378) 392(-1) 393(-1) 2379(379) 394(-1) 395(-1) 2380(380) 396(-1) 397(-1) 398(-1) 399(-1) 2381(381) 2382(382) 2383(383) 2384(384) 400(-1) 2385(385) 2386(386) 2387(387) 401(-1) 402(-1) 403(-1) 2388(388) 404(-1) 405(-1) 2389(389) 406(-1) 2390(390) 2391(391) 2392(392) 407(-1) 2393(393) 2394(394) 408(-1) 409(-1) 410(-1) 411(-1) 2395(395) 2396(396) 412(-1) 2397(397) 413(-1) 2398(398) 2399(399) 414(-1) 415(-1) 416(-1) 2400(400) 2401(401) 417(-1) 418(-1) 419(-1) 2402(402) 420(-1) 2403(403) 2404(404) 421(-1) 2405(405) 2406(406) 2407(407) 422(-1) 423(-1) 424(-1) 425(-1) 2408(408) 2409(409) 426(-1) 427(-1) 2410(410) 2411(411) 2412(412) 2413(413) 428(-1) 429(-1) 2414(414) 430(-1) 431(-1) 2415(415) 2416(416) 2417(417) 432(-1) 2418(418) 433(-1) 434(-1) 2419(419) 2420(420) 435(-1) 436(-1) 437(-1) 2421(421) 438(-1) 2422(422) 439(-1) 440(-1) 2423(423) 2424(424) 2425(425) 2426(426) 441(-1) 442(-1) 2427(427) 2428(428) 2429(429) 443(-1) 444(-1) 445(-1) 2430(430) 446(-1) 2431(431) 447(-1) 448(-1) 2432(432) 2433(433) 449(-1) 2434(434) 2435(435) 450(-1) 451(-1) 2436(436) 2437(437) 2438(438) 2439(439) 2440(440) 452(-1) 453(-1) 454(-1) 2441(441) 455(-1) 2442(442) 2443(443) 456(-1) 457(-1) 458(-1) 459(-1) 460(-1) 2444(444) 2445(445) 2446(446) 2447(447) 461(-1) 2448(448) 2449(449) 462(-1) 463(-1) 464(-1) 465(-1) 2450(450) 2451(451) 2452(452) 466(-1) 467(-1) 2453(453) 2454(454) 468(-1) 469(-1) 470(-1) 2455(455) 2456(456) 471(-1) 472(-1) 473(-1) 474(-1) 2457(457) 2458(458) 475(-1) 476(-1) 2459(459) 477(-1) 2460(460) 2461(461) 478(-1) 479(-1) 480(-1) 2462(462) 481(-1) 2463(463) 482(-1) 483(-1) 484(-1) 485(-1) 2464(464) 2465(465) 2466(466) 2467(467) 2468(468) 486(-1) 2469(469) 2470(470) 487(-1) 2471(471) 2472(472) 2473(473) 488(-1) 489(-1) 490(-1) 491(-1) 492(-1) 493(-1) 494(-1) 495(-1) 496(-1) 497(-1) 2474(474) 2475(475) 498(-1) 499(-1) 2476(476) 500(-1) 2477(477) 501(-1) 2478(478) 2479(479) 2480(480) 502(-1) 503(-1) 2481(481) 504(-1) 505(-1) 506(-1) 2482(482) 507(-1) 2483(483) 2484(484) 2485(485) 2486(486) 2487(487) 2488(488) 2489(489) 508(-1) 509(-1) 510(-1) 2490(490) 2491(491) 2492(492) 2493(493) 2494(494) 2495(495) 511(-1) 2496(496) 2497(497) 2498(498) 2499(499) 2500(500) 2501(501) 2502(502) 512(-1) 2503(503) 2504(504) 513(-1) 514(-1) 515(-1) 516(-1) 2505(505) 2506(506) 517(-1) 518(-1) 519(-1) 520(-1) 521(-1) 2507(507) 2508(508) 522(-1) 2509(509) 523(-1) 524(-1) 525(-1) 2510(510) 526(-1) 2511(511) 527(-1) 528(-1) 2512(512) 2513(513) 2514(514) 2515(515) 2516(516) 2517(517) 529(-1) 530(-1) 2518(518) 531(-1) 532(-1) 533(-1) 534(-1) 535(-1) 536(-1) 537(-1) 538(-1) 2519(519) 2520(520) 2521(521) 539(-1) 540(-1) 2522(522) 2523(523) 2524(524) 541(-1) 2525(525) 542(-1) 543(-1) 544(-1) 2526(526) 2527(527) 2528(528) 2529(529) 2530(530) 545(-1) 546(-1) 547(-1) 2531(531) 2532(532) 548(-1) 2533(533) 549(-1) 550(-1) 551(-1) 2534(534) 2535(535) 2536(536) 2537(537) 2538(538) 2539(539) 2540(540) 2541(541) 2542(542) 2543(543) 2544(544) 552(-1) 553(-1) 554(-1) 555(-1) 556(-1) 2545(545) 2546(546) 2547(547) 557(-1) 558(-1) 2548(548) 559(-1) 560(-1) 2549(549) 2550(550) 2551(551) 2552(552) 561(-1) 562(-1) 2553(553) 563(-1) 564(-1) 2554(554) 565(-1) 2555(555) 566(-1) 567(-1) 568(-1) 569(-1) 570(-1) 571(-1) 572(-1) 573(-1) 2556(556) 574(-1) 2557(557) 575(-1) 576(-1) 577(-1) 578(-1) 579(-1) 580(-1) 2558(558) 581(-1) 2559(559) 2560(560) 2561(561) 2562(562) 2563(563) 2564(564) 2565(565) 2566(566) 582(-1) 583(-1) 584(-1) 585(-1) 2567(567) 586(-1) 2568(568) 2569(569) 587(-1) 588(-1) 589(-1) 2570(570) 590(-1) 591(-1) 592(-1) 593(-1) 2571(571) 594(-1) 2572(572) 2573(573) 595(-1) 596(-1) 597(-1) 2574(574) 598(-1) 599(-1) 600(-1) 2575(575) 2576(576) 2577(577) 2578(578) 601(-1) 602(-1) 603(-1) 2579(579) 2580(580) 2581(581) 2582(582) 604(-1) 605(-1) 2583(583) 606(-1) 2584(584) 2585(585) 607(-1) 608(-1) 2586(586) 2587(587) 2588(588) 609(-1) 610(-1) 611(-1) 612(-1) 2589(589) 613(-1) 2590(590) 2591(591) 2592(592) 2593(593) 2594(594) 614(-1) 615(-1) 616(-1) 2595(595) 2596(596) 2597(597) 2598(598) 617(-1) 618(-1) 619(-1) 2599(599) 2600(600) 2601(601) 620(-1) 621(-1) 622(-1) 2602(602) 623(-1) 624(-1) 625(-1) 2603(603) 2604(604) 2605(605) 626(-1) 627(-1) 2606(606) 2607(607) 2608(608) 628(-1) 629(-1) 630(-1) 631(-1) 2609(609) 2610(610) 2611(611) 2612(612) 632(-1) 633(-1) 2613(613) 2614(614) 2615(615) 2616(616) 2617(617) 634(-1) 2618(618) 2619(619) 2620(620) 2621(621) 2622(622) 2623(623) 635(-1) 636(-1) 637(-1) 638(-1) 2624(624) 2625(625) 639(-1) 640(-1) 2626(626) 641(-1) 642(-1) 2627(627) 643(-1) 644(-1) 2628(628) 645(-1) 2629(629) 646(-1) 2630(630) 647(-1) 648(-1) 2631(631) 2632(632) 649(-1) 2633(633) 2634(634) 2635(635) 2636(636) 650(-1) 2637(637) 2638(638) 2639(639) 2640(640) 651(-1) 652(-1) 653(-1) 2641(641) 654(-1) 2642(642) 2643(643) 655(-1) 2644(644) 656(-1) 657(-1) 658(-1) 659(-1) 660(-1) 661(-1) 662(-1) 2645(645) 2646(646) 663(-1) 2647(647) 664(-1) 665(-1) 666(-1) 2648(648) 667(-1) 2649(649) 668(-1) 669(-1) 2650(650) 2651(651) 2652(652) 2653(653) 2654(654) 2655(655) 2656(656) 2657(657) 2658(658) 670(-1) 671(-1) 672(-1) 673(-1) 2659(659) 2660(660) 2661(661) 674(-1) 675(-1) 2662(662) 676(-1) 2663(663) 2664(664) 677(-1) 2665(665) 2666(666) 2667(667) 678(-1) 679(-1) 680(-1) 2668(668) 2669(669) 681(-1) 682(-1) 2670(670) 683(-1) 684(-1) 2671(671) 2672(672) 2673(673) 685(-1) 686(-1) 687(-1) 2674(674) 2675(675) 2676(676) 2677(677) 2678(678) 688(-1) 689(-1) 690(-1) 691(-1) 692(-1) 693(-1) 694(-1) 695(-1) 696(-1) 2679(679) 2680(680) 2681(681) 2682(682) 2683(683) 2684(684) 2685(685) 697(-1) 698(-1) 2686(686) 699(-1) 700(-1) 701(-1) 702(-1) 2687(687) 2688(688) 703(-1) 704(-1) 2689(689) 2690(690) 2691(691) 2692(692) 705(-1) 706(-1) 707(-1) 2693(693) 2694(694) 708(-1) 2695(695) 709(-1) 710(-1) 711(-1) 712(-1) 2696(696) 2697(697) 2698(698) 713(-1) 714(-1) 2699(699) 715(-1) 716(-1) 2700(700) 717(-1) 718(-1) 719(-1) 2701(701) 720(-1) 721(-1) 2702(702) 722(-1) 2703(703) 723(-1) 2704(704) 2705(705) 724(-1) 725(-1) 726(-1) 2706(706) 727(-1) 728(-1) 2707(707) 2708(708) 2709(709) 2710(710) 2711(711) 729(-1) 730(-1) 731(-1) 732(-1) 733(-1) 734(-1) 2712(712) 2713(713) 2714(714) 735(-1) 736(-1) 737(-1) 2715(715) 2716(716) 738(-1) 739(-1) 2717(717) 740(-1) 741(-1) 742(-1) 2718(718) 743(-1) 744(-1) 2719(719) 745(-1) 746(-1) 2720(720) 747(-1) 2721(721) 2722(722) 748(-1) 2723(723) 749(-1) 750(-1) 751(-1) 752(-1) 2724(724) 753(-1) 754(-1) 2725(725) 2726(726) 2727(727) 2728(728) 2729(729) 2730(730) 2731(731) 755(-1) 756(-1) 2732(732) 2733(733) 2734(734) 2735(735) 2736(736) 2737(737) 2738(738) 2739(739) 757(-1) 758(-1) 2740(740) 759(-1) 760(-1) 2741(741) 2742(742) 2743(743) 761(-1) 2744(744) 762(-1) 2745(745) 2746(746) 763(-1) 764(-1) 765(-1) 766(-1) 767(-1) 2747(747) 768(-1) 769(-1) 770(-1) 2748(748) 2749(749) 2750(750) 2751(751) 2752(752) 2753(753) 2754(754) 2755(755) 771(-1) 772(-1) 773(-1) 774(-1) 2756(756) 2757(757) 2758(758) 2759(759) 2760(760) 2761(761) 2762(762) 2763(763) 2764(764) 775(-1) 776(-1) 777(-1) 778(-1) 2765(765) 779(-1) 780(-1) 781(-1) 2766(766) 2767(767) 782(-1) 2768(768) 783(-1) 784(-1) 2769(769) 2770(770) 785(-1) 786(-1) 787(-1) 788(-1) 789(-1) 790(-1) 2771(771) 2772(772) 2773(773) 2774(774) 791(-1) 792(-1) 793(-1) 2775(775) 2776(776) 2777(777) 2778(778) 2779(779) 794(-1) 2780(780) 795(-1) 2781(781) 2782(782) 796(-1) 797(-1) 2783(783) 798(-1) 799(-1) 800(-1) 2784(784) 2785(785) 2786(786) 2787(787) 801(-1) 802(-1) 2788(788) 2789(789) 803(-1) 804(-1) 805(-1) 2790(790) 2791(791) 806(-1) 807(-1) 808(-1) 2792(792) 2793(793) 2794(794) 809(-1) 810(-1) 811(-1) 812(-1) 2795(795) 2796(796) 2797(797) 2798(798) 813(-1) 814(-1) 815(-1) 2799(799) 816(-1) 2800(800) 2801(801) 2802(802) 2803(803) 2804(804) 817(-1) 818(-1) 819(-1) 820(-1) 2805(805) 2806(806) 821(-1) 822(-1) 823(-1) 824(-1) 825(-1) 2807(807) 2808(808) 2809(809) 2810(810) 826(-1) 827(-1) 828(-1) 829(-1) 830(-1) 831(-1) 2811(811) 2812(812) 2813(813) 2814(814) 832(-1) 833(-1) 834(-1) 835(-1) 2815(815) 836(-1) 2816(816) 2817(817) 2818(818) 2819(819) 2820(820) 837(-1) 838(-1) 2821(821) 2822(822) 2823(823) 2824(824) 2825(825) 839(-1) 840(-1) 841(-1) 2826(826) 2827(827) 842(-1) 843(-1) 2828(828) 2829(829) 844(-1) 845(-1) 2830(830) 846(-1) 2831(831) 847(-1) 2832(832) 2833(833) 848(-1) 2834(834) 849(-1) 2835(835) 850(-1) 851(-1) 2836(836) 2837(837) 2838(838) 852(-1) 853(-1) 854(-1) 2839(839) 2840(840) 2841(841) 2842(842) 855(-1) 856(-1) 2843(843) 857(-1) 858(-1) 2844(844) 859(-1) 860(-1) 861(-1) 2845(845) 2846(846) 2847(847) 2848(848) 2849(849) 862(-1) 863(-1) 864(-1) 865(-1) 2850(850) 2851(851) 2852(852) 2853(853) 2854(854) 866(-1) 867(-1) 2855(855) 2856(856) 868(-1) 869(-1) 2857(857) 2858(858) 870(-1) 871(-1) 872(-1) 873(-1) 2859(859) 2860(860) 2861(861) 874(-1) 875(-1) 876(-1) 2862(862) 2863(863) 877(-1) 878(-1) 879(-1) 2864(864) 2865(865) 880(-1) 2866(866) 881(-1) 2867(867) 2868(868) 2869(869) 882(-1) 2870(870) 883(-1) 884(-1) 885(-1) 886(-1) 887(-1) 2871(871) 2872(872) 888(-1) 2873(873) 2874(874) 2875(875) 2876(876) 2877(877) 2878(878) 889(-1) 890(-1) 891(-1) 892(-1) 893(-1) 894(-1) 2879(879) 895(-1) 2880(880) 896(-1) 2881(881) 2882(882) 897(-1) 898(-1) 2883(883) 899(-1) 900(-1) 901(-1) 2884(884) 2885(885) 902(-1) 2886(886) 2887(887) 2888(888) 2889(889) 903(-1) 904(-1) 905(-1) 2890(890) 2891(891) 2892(892) 906(-1) 907(-1) 908(-1) 2893(893) 909(-1) 2894(894) 2895(895) 910(-1) 911(-1) 912(-1) 913(-1) 914(-1) 2896(896) 915(-1) 916(-1) 2897(897) 2898(898) 2899(899) 917(-1) 918(-1) 919(-1) 920(-1) 2900(900) 2901(901) 2902(902) 2903(903) 2904(904) 2905(905) 2906(906) 921(-1) 922(-1) 2907(907) 2908(908) 2909(909) 923(-1) 924(-1) 2910(910) 925(-1) 2911(911) 2912(912) 2913(913) 926(-1) 927(-1) 928(-1) 929(-1) 930(-1) 2914(914) 931(-1) 932(-1) 2915(915) 2916(916) 933(-1) 934(-1) 2917(917) 2918(918) 2919(919) 935(-1) 2920(920) 936(-1) 937(-1) 2921(921) 938(-1) 939(-1) 2922(922) 940(-1) 2923(923) 2924(924) 941(-1) 2925(925) 942(-1) 943(-1) 2926(926) 944(-1) 945(-1) 2927(927) 946(-1) 947(-1) 948(-1) 949(-1) 2928(928) 2929(929) 2930(930) 2931(931) 2932(932) 2933(933) 2934(934) 2935(935) 950(-1) 2936(936) 951(-1) 952(-1) 2937(937) 953(-1) 954(-1) 2938(938) 955(-1) 2939(939) 956(-1) 2940(940) 2941(941) 957(-1) 958(-1) 959(-1) 960(-1) 961(-1) 962(-1) 2942(942) 963(-1) 964(-1) 2943(943) 965(-1) 2944(944) 2945(945) 966(-1) 967(-1) 2946(946) 2947(947) 968(-1) 2948(948) 2949(949) 969(-1) 970(-1) 971(-1) 2950(950) 2951(951) 972(-1) 973(-1) 2952(952) 974(-1) 975(-1) 976(-1) 977(-1) 2953(953) 978(-1) 979(-1) 2954(954) 2955(955) 2956(956) 2957(957) 2958(958) 2959(959) 980(-1) 981(-1) 982(-1) 2960(960) 2961(961) 983(-1) 2962(962) 2963(963) 2964(964) 984(-1) 985(-1) 2965(965) 986(-1) 2966(966) 987(-1) 988(-1) 2967(967) 2968(968) 2969(969) 989(-1) 990(-1) 2970(970) 991(-1) 992(-1) 993(-1) 994(-1) 995(-1) 996(-1) 2971(971) 2972(972) 997(-1) 998(-1) 2973(973) 2974(974) 2975(975) 2976(976) 999(-1) 1000(-1) 1001(-1) 2977(977) 1002(-1) 2978(978) 2979(979) 1003(-1) 2980(980) 1004(-1) 2981(981) 2982(982) 2983(983) 2984(984) 1005(-1) 1006(-1) 1007(-1) 2985(985) 1008(-1) 2986(986) 1009(-1) 2987(987) 2988(988) 1010(-1) 2989(989) 1011(-1) 2990(990) 2991(991) 1012(-1) 2992(992) 2993(993) 2994(994) 1013(-1) 1014(-1) 1015(-1) 1016(-1) 2995(995) 2996(996) 2997(997) 1017(-1) 1018(-1) 1019(-1) 1020(-1) 1021(-1) 2998(998) 1022(-1) 1023(-1) 1024(-1) 2999(999) 1025(-1) 1026(-1) 1027(-1) 3000(1000) 1028(-1) 3001(1001) 1029(-1) 3002(1002) 1030(-1) 3003(1003) 3004(1004) 3005(1005) 1031(-1) 3006(1006) 1032(-1) 1033(-1) 3007(1007) 3008(1008) 3009(1009) 1034(-1) 1035(-1) 1036(-1) 3010(1010) 3011(1011) 3012(1012) 3013(1013) 3014(1014) 3015(1015) 1037(-1) 1038(-1) 1039(-1) 1040(-1) 3016(1016) 1041(-1) 1042(-1) 1043(-1) 3017(1017) 3018(1018) 3019(1019) 1044(-1) 3020(1020) 3021(1021) 3022(1022) 1045(-1) 1046(-1) 3023(1023) 3024(1024) 1047(-1) 1048(-1) 3025(1025) 3026(1026) 1049(-1) 3027(1027) 1050(-1) 1051(-1) 1052(-1) 1053(-1) 3028(1028) 3029(1029) 1054(-1) 1055(-1) 3030(1030) 3031(1031) 1056(-1) 1057(-1) 1058(-1) 3032(1032) 3033(1033) 1059(-1) 3034(1034) 3035(1035) 3036(1036) 1060(-1) 1061(-1) 3037(1037) 1062(-1) 1063(-1) 3038(1038) 1064(-1) 1065(-1) 3039(1039) 3040(1040) 3041(1041) 1066(-1) 1067(-1) 3042(1042) 3043(1043) 1068(-1) 3044(1044) 1069(-1) 1070(-1) 3045(1045) 1071(-1) 1072(-1) 1073(-1) 3046(1046) 3047(1047) 1074(-1) 3048(1048) 3049(1049) 1075(-1) 3050(1050) 3051(1051) 1076(-1) 1077(-1) 1078(-1) 3052(1052) 3053(1053) 3054(1054) 3055(1055) 1079(-1) 1080(-1) 1081(-1) 1082(-1) 1083(-1) 1084(-1) 1085(-1) 3056(1056) 3057(1057) 3058(1058) 3059(1059) 1086(-1) 1087(-1) 3060(1060) 3061(1061) 3062(1062) 3063(1063) 1088(-1) 1089(-1) 1090(-1) 3064(1064) 1091(-1) 1092(-1) 1093(-1) 1094(-1) 1095(-1) 3065(1065) 3066(1066) 1096(-1) 3067(1067) 3068(1068) 3069(1069) 3070(1070) 1097(-1) 1098(-1) 1099(-1) 1100(-1) 1101(-1) 1102(-1) 3071(1071) 3072(1072) 3073(1073) 3074(1074) 1103(-1) 1104(-1) 3075(1075) 1105(-1) 1106(-1) 1107(-1) 1108(-1) 3076(1076) 3077(1077) 3078(1078) 3079(1079) 3080(1080) 3081(1081) 3082(1082) 3083(1083) 3084(1084) 3085(1085) 3086(1086) 3087(1087) 3088(1088) 1109(-1) 1110(-1) 3089(1089) 1111(-1) 3090(1090) 1112(-1) 1113(-1) 1114(-1) 3091(1091) 3092(1092) 3093(1093) 1115(-1) 1116(-1) 1117(-1) 3094(1094) 1118(-1) 3095(1095) 3096(1096) 1119(-1) 1120(-1) 1121(-1) 3097(1097) 3098(1098) 1122(-1) 3099(1099) 1123(-1) 1124(-1) 1125(-1) 3100(1100) 1126(-1) 3101(1101) 3102(1102) 1127(-1) 1128(-1) 1129(-1) 3103(1103) 3104(1104) 1130(-1) 1131(-1) 1132(-1) 3105(1105) 3106(1106) 1133(-1) 3107(1107) 3108(1108) 3109(1109) 3110(1110) 1134(-1) 1135(-1) 1136(-1) 1137(-1) 3111(1111) 3112(1112) 1138(-1) 3113(1113) 3114(1114) 1139(-1) 3115(1115) 3116(1116) 1140(-1) 1141(-1) 1142(-1) 3117(1117) 3118(1118) 3119(1119) 1143(-1) 1144(-1) 1145(-1) 1146(-1) 1147(-1) 1148(-1) 3120(1120) 3121(1121) 3122(1122) 3123(1123) 3124(1124) 1149(-1) 1150(-1) 3125(1125) 3126(1126) 3127(1127) 1151(-1) 3128(1128) 3129(1129) 1152(-1) 1153(-1) 3130(1130) 1154(-1) 3131(1131) 3132(1132) 3133(1133) 3134(1134) 3135(1135) 1155(-1) 1156(-1) 3136(1136) 3137(1137) 3138(1138) 3139(1139) 3140(1140) 1157(-1) 3141(1141) 1158(-1) 1159(-1) 1160(-1) 3142(1142) 3143(1143) 3144(1144) 1161(-1) 1162(-1) 1163(-1) 1164(-1) 1165(-1) 1166(-1) 1167(-1) 3145(1145) 1168(-1) 1169(-1) 3146(1146) 3147(1147) 3148(1148) 3149(1149) 1170(-1) 1171(-1) 3150(1150) 3151(1151) 3152(1152) 3153(1153) 3154(1154) 1172(-1) 1173(-1) 1174(-1) 3155(1155) 1175(-1) 1176(-1) 1177(-1) 1178(-1) 1179(-1) 3156(1156) 1180(-1) 1181(-1) 1182(-1) 1183(-1) 3157(1157) 3158(1158) 3159(1159) 3160(1160) 1184(-1) 3161(1161) 3162(1162) 1185(-1) 1186(-1) 1187(-1) 1188(-1) 1189(-1) 3163(1163) 3164(1164) 3165(1165) 1190(-1) 1191(-1) 1192(-1) 3166(1166) 3167(1167) 3168(1168) 3169(1169) 3170(1170) 1193(-1) 3171(1171) 3172(1172) 1194(-1) 1195(-1) 3173(1173) 1196(-1) 1197(-1) 3174(1174) 1198(-1) 1199(-1) 1200(-1) 1201(-1) 1202(-1) 3175(1175) 3176(1176) 3177(1177) 1203(-1) 3178(1178) 3179(1179) 3180(1180) 3181(1181) 3182(1182) 3183(1183) 3184(1184) 1204(-1) 3185(1185) 3186(1186) 1205(-1) 1206(-1) 3187(1187) 1207(-1) 1208(-1) 3188(1188) 3189(1189) 1209(-1) 1210(-1) 3190(1190) 1211(-1) 3191(1191) 1212(-1) 1213(-1) 1214(-1) 3192(1192) 3193(1193) 3194(1194) 1215(-1) 1216(-1) 3195(1195) 3196(1196) 3197(1197) 1217(-1) 1218(-1) 3198(1198) 1219(-1) 1220(-1) 1221(-1) 3199(1199) 1222(-1) 3200(1200) 3201(1201) 1223(-1) 1224(-1) 1225(-1) 1226(-1) 3202(1202) 3203(1203) 3204(1204) 1227(-1) 3205(1205) 3206(1206) 3207(1207) 1228(-1) 1229(-1) 3208(1208) 1230(-1) 3209(1209) 3210(1210) 1231(-1) 1232(-1) 1233(-1) 1234(-1) 3211(1211) 3212(1212) 1235(-1) 1236(-1) 3213(1213) 1237(-1) 3214(1214) 1238(-1) 1239(-1) 1240(-1) 3215(1215) 3216(1216) 3217(1217) 3218(1218) 3219(1219) 3220(1220) 1241(-1) 1242(-1) 1243(-1) 1244(-1) 1245(-1) 3221(1221) 3222(1222) 3223(1223) 3224(1224) 1246(-1) 3225(1225) 3226(1226) 1247(-1) 1248(-1) 3227(1227) 3228(1228) 3229(1229) 3230(1230) 3231(1231) 3232(1232) 3233(1233) 3234(1234) 3235(1235) 3236(1236) 3237(1237) 1249(-1) 1250(-1) 1251(-1) 3238(1238) 3239(1239) 1252(-1) 3240(1240) 1253(-1) 1254(-1) 1255(-1) 3241(1241) 1256(-1) 3242(1242) 1257(-1) 1258(-1) 1259(-1) 1260(-1) 1261(-1) 3243(1243) 3244(1244) 1262(-1) 1263(-1) 3245(1245) 3246(1246) 3247(1247) 3248(1248) 1264(-1) 3249(1249) 1265(-1) 1266(-1) 3250(1250) 1267(-1) 1268(-1) 3251(1251) 1269(-1) 1270(-1) 1271(-1) 3252(1252) 3253(1253) 1272(-1) 3254(1254) 3255(1255) 1273(-1) 1274(-1) 1275(-1) 1276(-1) 1277(-1) 1278(-1) 1279(-1) 1280(-1) 3256(1256) 1281(-1) 3257(1257) 1282(-1) 1283(-1) 3258(1258) 1284(-1) 3259(1259) 1285(-1) 1286(-1) 3260(1260) 1287(-1) 3261(1261) 3262(1262) 1288(-1) 1289(-1) 3263(1263) 3264(1264) 1290(-1) 1291(-1) 1292(-1) 3265(1265) 3266(1266) 3267(1267) 3268(1268) 3269(1269) 1293(-1) 3270(1270) 1294(-1) 1295(-1) 3271(1271) 3272(1272) 3273(1273) 1296(-1) 1297(-1) 3274(1274) 1298(-1) 1299(-1) 1300(-1) 1301(-1) 1302(-1) 3275(1275) 1303(-1) 3276(1276) 3277(1277) 3278(1278) 3279(1279) 3280(1280) 1304(-1) 1305(-1) 3281(1281) 3282(1282) 3283(1283) 3284(1284) 3285(1285) 3286(1286) 1306(-1) 1307(-1) 3287(1287) 1308(-1) 3288(1288) 1309(-1) 1310(-1) 1311(-1) 3289(1289) 3290(1290) 3291(1291) 3292(1292) 3293(1293) 3294(1294) 1312(-1) 1313(-1) 1314(-1) 1315(-1) 1316(-1) 1317(-1) 3295(1295) 3296(1296) 1318(-1) 3297(1297) 1319(-1) 1320(-1) 1321(-1) 3298(1298) 1322(-1) 3299(1299) 3300(1300) 1323(-1) 1324(-1) 3301(1301) 3302(1302) 3303(1303) 3304(1304) 3305(1305) 1325(-1) 1326(-1) 3306(1306) 1327(-1) 1328(-1) 1329(-1) 1330(-1) 1331(-1) 3307(1307) 3308(1308) 1332(-1) 3309(1309) 3310(1310) 1333(-1) 3311(1311) 1334(-1) 1335(-1) 3312(1312) 1336(-1) 3313(1313) 1337(-1) 1338(-1) 1339(-1) 1340(-1) 3314(1314) 1341(-1) 3315(1315) 3316(1316) 1342(-1) 3317(1317) 3318(1318) 1343(-1) 3319(1319) 3320(1320) 1344(-1) 1345(-1) 1346(-1) 1347(-1) 3321(1321) 3322(1322) 3323(1323) 3324(1324) 1348(-1) 3325(1325) 3326(1326) 3327(1327) 3328(1328) 1349(-1) 1350(-1) 3329(1329) 3330(1330) 1351(-1) 1352(-1) 3331(1331) 1353(-1) 1354(-1) 1355(-1) 3332(1332) 3333(1333) 1356(-1) 1357(-1) 3334(1334) 1358(-1) 1359(-1) 3335(1335) 3336(1336) 3337(1337) 1360(-1) 1361(-1) 3338(1338) 1362(-1) 1363(-1) 3339(1339) 1364(-1) 1365(-1) 1366(-1) 1367(-1) 3340(1340) 1368(-1) 3341(1341) 3342(1342) 1369(-1) 3343(1343) 1370(-1) 3344(1344) 1371(-1) 3345(1345) 3346(1346) 3347(1347) 3348(1348) 1372(-1) 1373(-1) 3349(1349) 1374(-1) 1375(-1) 3350(1350) 3351(1351) 3352(1352) 1376(-1) 3353(1353) 1377(-1) 1378(-1) 1379(-1) 1380(-1) 3354(1354) 1381(-1) 3355(1355) 1382(-1) 3356(1356) 1383(-1) 1384(-1) 3357(1357) 3358(1358) 1385(-1) 3359(1359) 3360(1360) 1386(-1) 1387(-1) 1388(-1) 1389(-1) 1390(-1) 3361(1361) 3362(1362) 3363(1363) 3364(1364) 1391(-1) 1392(-1) 3365(1365) 1393(-1) 3366(1366) 3367(1367) 1394(-1) 3368(1368) 1395(-1) 3369(1369) 1396(-1) 3370(1370) 1397(-1) 3371(1371) 1398(-1) 1399(-1) 3372(1372) 1400(-1) 1401(-1) 3373(1373) 1402(-1) 3374(1374) 1403(-1) 3375(1375) 3376(1376) 1404(-1) 1405(-1) 3377(1377) 3378(1378) 1406(-1) 3379(1379) 1407(-1) 1408(-1) 3380(1380) 3381(1381) 1409(-1) 1410(-1) 1411(-1) 1412(-1) 1413(-1) 1414(-1) 3382(1382) 3383(1383) 1415(-1) 3384(1384) 1416(-1) 3385(1385) 3386(1386) 3387(1387) 1417(-1) 1418(-1) 1419(-1) 3388(1388) 1420(-1) 1421(-1) 3389(1389) 1422(-1) 1423(-1) 1424(-1) 3390(1390) 3391(1391) 3392(1392) 3393(1393) 1425(-1) 1426(-1) 3394(1394) 3395(1395) 3396(1396) 3397(1397) 3398(1398) 1427(-1) 1428(-1) 3399(1399) 3400(1400) 1429(-1) 3401(1401) 3402(1402) 3403(1403) 3404(1404) 3405(1405) 3406(1406) 3407(1407) 3408(1408) 3409(1409) 1430(-1) 1431(-1) 1432(-1) 1433(-1) 3410(1410) 1434(-1) 3411(1411) 1435(-1) 3412(1412) 3413(1413) 1436(-1) 1437(-1) 1438(-1) 1439(-1) 3414(1414) 1440(-1) 1441(-1) 1442(-1) 1443(-1) 3415(1415) 3416(1416) 3417(1417) 3418(1418) 3419(1419) 3420(1420) 3421(1421) 3422(1422) 3423(1423) 3424(1424) 3425(1425) 1444(-1) 1445(-1) 1446(-1) 1447(-1) 1448(-1) 3426(1426) 3427(1427) 3428(1428) 1449(-1) 1450(-1) 3429(1429) 1451(-1) 1452(-1) 3430(1430) 3431(1431) 3432(1432) 3433(1433) 1453(-1) 1454(-1) 1455(-1) 3434(1434) 3435(1435) 3436(1436) 1456(-1) 1457(-1) 1458(-1) 3437(1437) 1459(-1) 3438(1438) 1460(-1) 1461(-1) 1462(-1) 3439(1439) 1463(-1) 1464(-1) 1465(-1) 3440(1440) 3441(1441) 3442(1442) 3443(1443) 3444(1444) 3445(1445) 1466(-1) 1467(-1) 1468(-1) 1469(-1) 1470(-1) 1471(-1) 1472(-1) 3446(1446) 3447(1447) 1473(-1) 1474(-1) 3448(1448) 3449(1449) 1475(-1) 1476(-1) 1477(-1) 3450(1450) 3451(1451) 1478(-1) 1479(-1) 1480(-1) 3452(1452) 3453(1453) 1481(-1) 3454(1454) 1482(-1) 3455(1455) 3456(1456) 1483(-1) 1484(-1) 3457(1457) 3458(1458) 3459(1459) 1485(-1) 3460(1460) 3461(1461) 3462(1462) 3463(1463) 3464(1464) 3465(1465) 1486(-1) 1487(-1) 3466(1466) 3467(1467) 3468(1468) 1488(-1) 3469(1469) 1489(-1) 3470(1470) 1490(-1) 1491(-1) 1492(-1) 3471(1471) 3472(1472) 1493(-1) 1494(-1) 3473(1473) 3474(1474) 1495(-1) 1496(-1) 3475(1475) 3476(1476) 1497(-1) 1498(-1) 3477(1477) 1499(-1) 3478(1478) 1500(-1) 1501(-1) 3479(1479) 3480(1480) 1502(-1) 1503(-1) 1504(-1) 3481(1481) 1505(-1) 1506(-1) 1507(-1) 3482(1482) 3483(1483) 1508(-1) 1509(-1) 1510(-1) 3484(1484) 3485(1485) 1511(-1) 1512(-1) 3486(1486) 3487(1487) 1513(-1) 1514(-1) 3488(1488) 1515(-1) 1516(-1) 3489(1489) 3490(1490) 3491(1491) 3492(1492) 3493(1493) 3494(1494) 3495(1495) 1517(-1) 1518(-1) 1519(-1) 3496(1496) 3497(1497) 1520(-1) 1521(-1) 3498(1498) 1522(-1) 3499(1499) 1523(-1) 1524(-1) 3500(1500) 1525(-1) 3501(1501) 1526(-1) 3502(1502) 1527(-1) 1528(-1) 3503(1503) 3504(1504) 3505(1505) 1529(-1) 1530(-1) 3506(1506) 3507(1507) 3508(1508) 1531(-1) 1532(-1) 1533(-1) 1534(-1) 1535(-1) 1536(-1) 1537(-1) 3509(1509) 3510(1510) 1538(-1) 3511(1511) 3512(1512) 3513(1513) 1539(-1) 1540(-1) 1541(-1) 3514(1514) 3515(1515) 3516(1516) 1542(-1) 1543(-1) 3517(1517) 3518(1518) 1544(-1) 1545(-1) 1546(-1) 3519(1519) 3520(1520) 3521(1521) 3522(1522) 1547(-1) 1548(-1) 1549(-1) 1550(-1) 3523(1523) 3524(1524) 3525(1525) 3526(1526) 1551(-1) 1552(-1) 3527(1527) 3528(1528) 3529(1529) 3530(1530) 3531(1531) 1553(-1) 1554(-1) 1555(-1) 1556(-1) 3532(1532) 3533(1533) 3534(1534) 1557(-1) 1558(-1) 1559(-1) 3535(1535) 1560(-1) 3536(1536) 3537(1537) 3538(1538) 1561(-1) 1562(-1) 3539(1539) 3540(1540) 3541(1541) 3542(1542) 1563(-1) 1564(-1) 3543(1543) 1565(-1) 1566(-1) 1567(-1) 1568(-1) 1569(-1) 1570(-1) 3544(1544) 1571(-1) 3545(1545) 1572(-1) 3546(1546) 1573(-1) 3547(1547) 1574(-1) 3548(1548) 3549(1549) 1575(-1) 3550(1550) 1576(-1) 1577(-1) 3551(1551) 3552(1552) 3553(1553) 3554(1554) 1578(-1) 3555(1555) 3556(1556) 3557(1557) 1579(-1) 1580(-1) 1581(-1) 3558(1558) 3559(1559) 3560(1560) 3561(1561) 1582(-1) 1583(-1) 3562(1562) 1584(-1) 3563(1563) 3564(1564) 3565(1565) 3566(1566) 3567(1567) 1585(-1) 1586(-1) 3568(1568) 3569(1569) 1587(-1) 1588(-1) 3570(1570) 1589(-1) 1590(-1) 3571(1571) 1591(-1) 1592(-1) 3572(1572) 1593(-1) 1594(-1) 1595(-1) 3573(1573) 1596(-1) 3574(1574) 1597(-1) 3575(1575) 3576(1576) 3577(1577) 3578(1578) 3579(1579) 1598(-1) 1599(-1) 1600(-1) 3580(1580) 3581(1581) 1601(-1) 3582(1582) 1602(-1) 1603(-1) 3583(1583) 3584(1584) 3585(1585) 1604(-1) 1605(-1) 1606(-1) 3586(1586) 3587(1587) 1607(-1) 1608(-1) 1609(-1) 3588(1588) 1610(-1) 3589(1589) 3590(1590) 3591(1591) 1611(-1) 1612(-1) 3592(1592) 1613(-1) 1614(-1) 1615(-1) 3593(1593) 1616(-1) 3594(1594) 3595(1595) 1617(-1) 1618(-1) 3596(1596) 1619(-1) 3597(1597) 1620(-1) 3598(1598) 1621(-1) 3599(1599) 1622(-1) 1623(-1) 3600(1600) 1624(-1) 3601(1601) 3602(1602) 3603(1603) 1625(-1) 3604(1604) 3605(1605) 3606(1606) 3607(1607) 3608(1608) 1626(-1) 3609(1609) 1627(-1) 3610(1610) 3611(1611) 3612(1612) 3613(1613) 3614(1614) 1628(-1) 3615(1615) 1629(-1) 3616(1616) 3617(1617) 1630(-1) 1631(-1) 1632(-1) 3618(1618) 3619(1619) 1633(-1) 3620(1620) 1634(-1) 1635(-1) 3621(1621) 1636(-1) 1637(-1) 3622(1622) 3623(1623) 1638(-1) 3624(1624) 3625(1625) 3626(1626) 1639(-1) 1640(-1) 1641(-1) 3627(1627) 3628(1628) 3629(1629) 3630(1630) 1642(-1) 1643(-1) 1644(-1) 1645(-1) 3631(1631) 3632(1632) 1646(-1) 3633(1633) 1647(-1) 1648(-1) 1649(-1) 1650(-1) 3634(1634) 3635(1635) 3636(1636) 1651(-1) 1652(-1) 3637(1637) 1653(-1) 1654(-1) 3638(1638) 1655(-1) 1656(-1) 3639(1639) 3640(1640) 3641(1641) 1657(-1) 1658(-1) 3642(1642) 1659(-1) 1660(-1) 1661(-1) 3643(1643) 3644(1644) 1662(-1) 3645(1645) 3646(1646) 3647(1647) 3648(1648) 1663(-1) 1664(-1) 3649(1649) 1665(-1) 3650(1650) 1666(-1) 1667(-1) 1668(-1) 3651(1651) 3652(1652) 1669(-1) 1670(-1) 1671(-1) 3653(1653) 3654(1654) 3655(1655) 3656(1656) 3657(1657) 3658(1658) 3659(1659) 3660(1660) 1672(-1) 1673(-1) 1674(-1) 1675(-1) 3661(1661) 1676(-1) 3662(1662) 3663(1663) 1677(-1) 1678(-1) 3664(1664) 1679(-1) 1680(-1) 1681(-1) 3665(1665) 1682(-1) 3666(1666) 3667(1667) 3668(1668) 3669(1669) 3670(1670) 3671(1671) 3672(1672) 3673(1673) 3674(1674) 3675(1675) 1683(-1) 1684(-1) 1685(-1) 1686(-1) 3676(1676) 3677(1677) 1687(-1) 3678(1678) 1688(-1) 1689(-1) 1690(-1) 1691(-1) 3679(1679) 3680(1680) 1692(-1) 1693(-1) 1694(-1) 1695(-1) 3681(1681) 3682(1682) 1696(-1) 1697(-1) 1698(-1) 3683(1683) 1699(-1) 3684(1684) 1700(-1) 1701(-1) 3685(1685) 3686(1686) 3687(1687) 1702(-1) 3688(1688) 3689(1689) 3690(1690) 3691(1691) 1703(-1) 3692(1692) 1704(-1) 3693(1693) 1705(-1) 3694(1694) 3695(1695) 3696(1696) 1706(-1) 1707(-1) 1708(-1) 3697(1697) 1709(-1) 1710(-1) 1711(-1) 3698(1698) 3699(1699) 1712(-1) 1713(-1) 3700(1700) 3701(1701) 3702(1702) 3703(1703) 1714(-1) 3704(1704) 1715(-1) 1716(-1) 3705(1705) 1717(-1) 1718(-1) 3706(1706) 3707(1707) 3708(1708) 3709(1709) 1719(-1) 1720(-1) 3710(1710) 3711(1711) 1721(-1) 1722(-1) 1723(-1) 1724(-1) 1725(-1) 3712(1712) 3713(1713) 1726(-1) 1727(-1) 3714(1714) 3715(1715) 3716(1716) 3717(1717) 1728(-1) 1729(-1) 3718(1718) 1730(-1) 1731(-1) 1732(-1) 3719(1719) 1733(-1) 1734(-1) 1735(-1) 3720(1720) 3721(1721) 1736(-1) 1737(-1) 1738(-1) 1739(-1) 3722(1722) 3723(1723) 3724(1724) 3725(1725) 1740(-1) 1741(-1) 3726(1726) 3727(1727) 3728(1728) 3729(1729) 3730(1730) 3731(1731) 3732(1732) 1742(-1) 1743(-1) 1744(-1) 3733(1733) 1745(-1) 1746(-1) 1747(-1) 3734(1734) 1748(-1) 1749(-1) 3735(1735) 3736(1736) 3737(1737) 3738(1738) 1750(-1) 1751(-1) 3739(1739) 3740(1740) 3741(1741) 1752(-1) 1753(-1) 1754(-1) 1755(-1) 1756(-1) 3742(1742) 3743(1743) 3744(1744) 3745(1745) 1757(-1) 3746(1746) 3747(1747) 3748(1748) 3749(1749) 1758(-1) 1759(-1) 1760(-1) 3750(1750) 3751(1751) 1761(-1) 1762(-1) 1763(-1) 3752(1752) 1764(-1) 3753(1753) 1765(-1) 1766(-1) 1767(-1) 3754(1754) 3755(1755) 3756(1756) 1768(-1) 1769(-1) 1770(-1) 1771(-1) 3757(1757) 1772(-1) 3758(1758) 3759(1759) 3760(1760) 1773(-1) 3761(1761) 1774(-1) 1775(-1) 1776(-1) 3762(1762) 1777(-1) 1778(-1) 3763(1763) 3764(1764) 3765(1765) 3766(1766) 3767(1767) 3768(1768) 1779(-1) 1780(-1) 3769(1769) 3770(1770) 3771(1771) 3772(1772) 3773(1773) 1781(-1) 1782(-1) 1783(-1) 1784(-1) 1785(-1) 3774(1774) 1786(-1) 3775(1775) 3776(1776) 3777(1777) 3778(1778) 1787(-1) 1788(-1) 1789(-1) 3779(1779) 1790(-1) 3780(1780) 3781(1781) 3782(1782) 1791(-1) 1792(-1) 1793(-1) 3783(1783) 1794(-1) 1795(-1) 3784(1784) 3785(1785) 1796(-1) 1797(-1) 3786(1786) 1798(-1) 3787(1787) 1799(-1) 3788(1788) 1800(-1) 1801(-1) 3789(1789) 3790(1790) 3791(1791) 1802(-1) 3792(1792) 3793(1793) 1803(-1) 1804(-1) 3794(1794) 3795(1795) 1805(-1) 1806(-1) 1807(-1) 1808(-1) 1809(-1) 3796(1796) 3797(1797) 3798(1798) 3799(1799) 1810(-1) 3800(1800) 1811(-1) 1812(-1) 3801(1801) 3802(1802) 1813(-1) 1814(-1) 3803(1803) 1815(-1) 3804(1804) 1816(-1) 1817(-1) 1818(-1) 1819(-1) 1820(-1) 3805(1805) 1821(-1) 3806(1806) 3807(1807) 3808(1808) 3809(1809) 3810(1810) 3811(1811) 1822(-1) 1823(-1) 1824(-1) 3812(1812) 3813(1813) 1825(-1) 1826(-1) 3814(1814) 1827(-1) 1828(-1) 3815(1815) 1829(-1) 1830(-1) 3816(1816) 1831(-1) 1832(-1) 1833(-1) 1834(-1) 3817(1817) 3818(1818) 1835(-1) 3819(1819) 3820(1820) 1836(-1) 3821(1821) 3822(1822) 1837(-1) 1838(-1) 3823(1823) 3824(1824) 1839(-1) 1840(-1) 3825(1825) 1841(-1) 3826(1826) 3827(1827) 3828(1828) 3829(1829) 3830(1830) 1842(-1) 1843(-1) 3831(1831) 1844(-1) 1845(-1) 3832(1832) 1846(-1) 1847(-1) 1848(-1) 1849(-1) 1850(-1) 1851(-1) 3833(1833) 3834(1834) 1852(-1) 1853(-1) 3835(1835) 3836(1836) 1854(-1) 1855(-1) 1856(-1) 1857(-1) 1858(-1) 1859(-1) 1860(-1) 3837(1837) 1861(-1) 3838(1838) 3839(1839) 1862(-1) 3840(1840) 3841(1841) 1863(-1) 3842(1842) 1864(-1) 1865(-1) 3843(1843) 3844(1844) 3845(1845) 3846(1846) 3847(1847) 3848(1848) 1866(-1) 1867(-1) 3849(1849) 3850(1850) 3851(1851) 3852(1852) 3853(1853) 3854(1854) 3855(1855) 3856(1856) 1868(-1) 1869(-1) 1870(-1) 3857(1857) 3858(1858) 1871(-1) 1872(-1) 3859(1859) 1873(-1) 1874(-1) 1875(-1) 1876(-1) 3860(1860) 3861(1861) 1877(-1) 1878(-1) 3862(1862) 1879(-1) 1880(-1) 3863(1863) 1881(-1) 1882(-1) 3864(1864) 3865(1865) 3866(1866) 3867(1867) 1883(-1) 3868(1868) 1884(-1) 1885(-1) 1886(-1) 1887(-1) 3869(1869) 1888(-1) 1889(-1) 1890(-1) 3870(1870) 3871(1871) 3872(1872) 3873(1873) 3874(1874) 1891(-1) 1892(-1) 3875(1875) 1893(-1) 1894(-1) 1895(-1) 3876(1876) 3877(1877) 3878(1878) 1896(-1) 1897(-1) 3879(1879) 3880(1880) 1898(-1) 1899(-1) 1900(-1) 3881(1881) 1901(-1) 1902(-1) 3882(1882) 3883(1883) 3884(1884) 1903(-1) 1904(-1) 1905(-1) 3885(1885) 3886(1886) 1906(-1) 1907(-1) 1908(-1) 3887(1887) 1909(-1) 1910(-1) 1911(-1) 1912(-1) 1913(-1) 3888(1888) 3889(1889) 1914(-1) 3890(1890) 1915(-1) 1916(-1) 3891(1891) 3892(1892) 3893(1893) 3894(1894) 1917(-1) 1918(-1) 3895(1895) 3896(1896) 3897(1897) 3898(1898) 3899(1899) 3900(1900) 1919(-1) 1920(-1) 1921(-1) 3901(1901) 1922(-1) 3902(1902) 1923(-1) 1924(-1) 3903(1903) 1925(-1) 1926(-1) 1927(-1) 3904(1904) 3905(1905) 1928(-1) 3906(1906) 3907(1907) 3908(1908) 1929(-1) 3909(1909) 3910(1910) 1930(-1) 1931(-1) 1932(-1) 3911(1911) 3912(1912) 3913(1913) 1933(-1) 3914(1914) 1934(-1) 1935(-1) 3915(1915) 3916(1916) 3917(1917) 3918(1918) 3919(1919) 1936(-1) 1937(-1) 1938(-1) 3920(1920) 3921(1921) 3922(1922) 3923(1923) 3924(1924) 1939(-1) 1940(-1) 1941(-1) 3925(1925) 3926(1926) 3927(1927) 3928(1928) 1942(-1) 1943(-1) 1944(-1) 3929(1929) 1945(-1) 1946(-1) 3930(1930) 3931(1931) 3932(1932) 3933(1933) 3934(1934) 3935(1935) 3936(1936) 1947(-1) 1948(-1) 3937(1937) 3938(1938) 3939(1939) 3940(1940) 3941(1941) 1949(-1) 1950(-1) 3942(1942) 3943(1943) 1951(-1) 3944(1944) 3945(1945) 1952(-1) 1953(-1) 1954(-1) 1955(-1) 1956(-1) 3946(1946) 1957(-1) 3947(1947) 1958(-1) 3948(1948) 1959(-1) 3949(1949) 3950(1950) 1960(-1) 1961(-1) 1962(-1) 1963(-1) 1964(-1) 3951(1951) 3952(1952) 3953(1953) 1965(-1) 1966(-1) 3954(1954) 1967(-1) 1968(-1) 3955(1955) 1969(-1) 3956(1956) 3957(1957) 3958(1958) 3959(1959) 3960(1960) 3961(1961) 3962(1962) 1970(-1) 1971(-1) 1972(-1) 3963(1963) 3964(1964) 1973(-1) 3965(1965) 3966(1966) 3967(1967) 1974(-1) 1975(-1) 3968(1968) 1976(-1) 1977(-1) 3969(1969) 3970(1970) 3971(1971) 3972(1972) 1978(-1) 1979(-1) 1980(-1) 3973(1973) 1981(-1) 1982(-1) 3974(1974) 1983(-1) 1984(-1) 1985(-1) 1986(-1) 3975(1975) 3976(1976) 1987(-1) 3977(1977) 3978(1978) 3979(1979) 1988(-1) 3980(1980) 1989(-1) 1990(-1) 1991(-1) 1992(-1) 3981(1981) 1993(-1) 1994(-1) 3982(1982) 3983(1983) 3984(1984) 3985(1985) 3986(1986) 3987(1987) 3988(1988) 3989(1989) 3990(1990) 3991(1991) 3992(1992) 1995(-1) 3993(1993) 1996(-1) 3994(1994) 3995(1995) 1997(-1) 1998(-1) 3996(1996) 1999(-1) 3997(1997) 
  Operations: 0[0]+1[1]->2000 2[2]+3[3]->2001 2000[2000]+2001[2001]->2002 5[5]+6[6]->2003 4[4]+2003[2003]->2004 9[9]+10[10]->2005 8[8]+2005[2005]->2006 7[7]+2006[2006]->2007 12[12]+13[13]->2008 11[11]+2008[2008]->2009 17[17]+18[18]->2010 16[16]+2010[2010]->2011 2011[2011]+19[19]->2012 15[15]+2012[2012]->2013 20[20]+21[21]->2014 2013[2013]+2014[2014]->2015 22[22]+23[23]->2016 24[24]+25[25]->2017 2017[2017]+26[26]->2018 2016[2016]+2018[2018]->2019 2015[2015]+2019[2019]->2020 14[14]+2020[2020]->2021 30[30]+31[31]->2022 29[29]+2022[2022]->2023 28[28]+2023[2023]->2024 27[27]+2024[2024]->2025 2021[2021]+2025[2025]->2026 35[35]+36[36]->2027 34[34]+2027[2027]->2028 2028[2028]+37[37]->2029 33[33]+2029[2029]->2030 32[32]+2030[2030]->2031 2026[2026]+2031[2031]->2032 2009[2009]+2032[2032]->2033 40[40]+41[41]->2034 39[39]+2034[2034]->2035 38[38]+2035[2035]->2036 43[43]+44[44]->2037 42[42]+2037[2037]->2038 2036[2036]+2038[2038]->2039 46[46]+47[47]->2040 2040[2040]+48[48]->2041 2041[2041]+49[49]->2042 45[45]+2042[2042]->2043 2043[2043]+50[50]->2044 2044[2044]+51[51]->2045 2039[2039]+2045[2045]->2046 53[53]+54[54]->2047 52[52]+2047[2047]->2048 2048[2048]+55[55]->2049 2049[2049]+56[56]->2050 58[58]+59[59]->2051 60[60]+61[61]->2052 2051[2051]+2052[2052]->2053 62[62]+63[63]->2054 2053[2053]+2054[2054]->2055 57[57]+2055[2055]->2056 2050[2050]+2056[2056]->2057 66[66]+67[67]->2058 65[65]+2058[2058]->2059 69[69]+70[70]->2060 68[68]+2060[2060]->2061 2059[2059]+2061[2061]->2062 64[64]+2062[2062]->2063 2057[2057]+2063[2063]->2064 2046[2046]+2064[2064]->2065 2033[2033]+2065[2065]->2066 71[71]+72[72]->2067 73[73]+74[74]->2068 2067[2067]+2068[2068]->2069 2066[2066]+2069[2069]->2070 75[75]+76[76]->2071 2071[2071]+77[77]->2072 78[78]+79[79]->2073 82[82]+83[83]->2074 81[81]+2074[2074]->2075 84[84]+85[85]->2076 2076[2076]+86[86]->2077 2075[2075]+2077[2077]->2078 80[80]+2078[2078]->2079 2073[2073]+2079[2079]->2080 87[87]+88[88]->2081 91[91]+92[92]->2082 94[94]+95[95]->2083 93[93]+2083[2083]->2084 96[96]+97[97]->2085 2084[2084]+2085[2085]->2086 2082[2082]+2086[2086]->2087 90[90]+2087[2087]->2088 89[89]+2088[2088]->2089 101[101]+102[102]->2090 100[100]+2090[2090]->2091 103[103]+104[104]->2092 2091[2091]+2092[2092]->2093 99[99]+2093[2093]->2094 98[98]+2094[2094]->2095 105[105]+106[106]->2096 2095[2095]+2096[2096]->2097 2089[2089]+2097[2097]->2098 2081[2081]+2098[2098]->2099 2099[2099]+107[107]->2100 2080[2080]+2100[2100]->2101 2072[2072]+2101[2101]->2102 2070[2070]+2102[2102]->2103 108[108]+109[109]->2104 110[110]+111[111]->2105 2104[2104]+2105[2105]->2106 112[112]+113[113]->2107 2106[2106]+2107[2107]->2108 114[114]+115[115]->2109 117[117]+118[118]->2110 2110[2110]+119[119]->2111 116[116]+2111[2111]->2112 120[120]+121[121]->2113 2113[2113]+122[122]->2114 2112[2112]+2114[2114]->2115 2109[2109]+2115[2115]->2116 123[123]+124[124]->2117 126[126]+127[127]->2118 125[125]+2118[2118]->2119 128[128]+129[129]->2120 2119[2119]+2120[2120]->2121 130[130]+131[131]->2122 2122[2122]+132[132]->2123 2123[2123]+133[133]->2124 2121[2121]+2124[2124]->2125 135[135]+136[136]->2126 134[134]+2126[2126]->2127 2125[2125]+2127[2127]->2128 139[139]+140[140]->2129 138[138]+2129[2129]->2130 137[137]+2130[2130]->2131 144[144]+145[145]->2132 147[147]+148[148]->2133 2133[2133]+149[149]->2134 146[146]+2134[2134]->2135 2132[2132]+2135[2135]->2136 143[143]+2136[2136]->2137 142[142]+2137[2137]->2138 2138[2138]+150[150]->2139 151[151]+152[152]->2140 153[153]+154[154]->2141 2140[2140]+2141[2141]->2142 157[157]+158[158]->2143 2143[2143]+159[159]->2144 156[156]+2144[2144]->2145 155[155]+2145[2145]->2146 2142[2142]+2146[2146]->2147 2147[2147]+160[160]->2148 2139[2139]+2148[2148]->2149 2149[2149]+161[161]->2150 163[163]+164[164]->2151 162[162]+2151[2151]->2152 2152[2152]+165[165]->2153 2150[2150]+2153[2153]->2154 141[141]+2154[2154]->2155 171[171]+172[172]->2156 2156[2156]+173[173]->2157 174[174]+175[175]->2158 2158[2158]+176[176]->2159 2159[2159]+177[177]->2160 2157[2157]+2160[2160]->2161 170[170]+2161[2161]->2162 169[169]+2162[2162]->2163 168[168]+2163[2163]->2164 167[167]+2164[2164]->2165 166[166]+2165[2165]->2166 2155[2155]+2166[2166]->2167 2131[2131]+2167[2167]->2168 2128[2128]+2168[2168]->2169 2117[2117]+2169[2169]->2170 180[180]+181[181]->2171 179[179]+2171[2171]->2172 178[178]+2172[2172]->2173 2170[2170]+2173[2173]->2174 2116[2116]+2174[2174]->2175 2108[2108]+2175[2175]->2176 182[182]+183[183]->2177 186[186]+187[187]->2178 190[190]+191[191]->2179 189[189]+2179[2179]->2180 188[188]+2180[2180]->2181 2178[2178]+2181[2181]->2182 192[192]+193[193]->2183 2182[2182]+2183[2183]->2184 185[185]+2184[2184]->2185 184[184]+2185[2185]->2186 194[194]+195[195]->2187 2186[2186]+2187[2187]->2188 2177[2177]+2188[2188]->2189 2176[2176]+2189[2189]->2190 197[197]+198[198]->2191 201[201]+202[202]->2192 200[200]+2192[2192]->2193 207[207]+208[208]->2194 206[206]+2194[2194]->2195 205[205]+2195[2195]->2196 204[204]+2196[2196]->2197 203[203]+2197[2197]->2198 2193[2193]+2198[2198]->2199 2199[2199]+209[209]->2200 210[210]+211[211]->2201 2201[2201]+212[212]->2202 2202[2202]+213[213]->2203 216[216]+217[217]->2204 215[215]+2204[2204]->2205 214[214]+2205[2205]->2206 2203[2203]+2206[2206]->2207 219[219]+220[220]->2208 218[218]+2208[2208]->2209 223[223]+224[224]->2210 222[222]+2210[2210]->2211 221[221]+2211[2211]->2212 2209[2209]+2212[2212]->2213 2213[2213]+225[225]->2214 226[226]+227[227]->2215 2214[2214]+2215[2215]->2216 229[229]+230[230]->2217 228[228]+2217[2217]->2218 2218[2218]+231[231]->2219 2216[2216]+2219[2219]->2220 2207[2207]+2220[2220]->2221 2200[2200]+2221[2221]->2222 2222[2222]+232[232]->2223 2223[2223]+233[233]->2224 199[199]+2224[2224]->2225 235[235]+236[236]->2226 2226[2226]+237[237]->2227 2227[2227]+238[238]->2228 234[234]+2228[2228]->2229 2225[2225]+2229[2229]->2230 241[241]+242[242]->2231 240[240]+2231[2231]->2232 243[243]+244[244]->2233 2233[2233]+245[245]->2234 250[250]+251[251]->2235 249[249]+2235[2235]->2236 248[248]+2236[2236]->2237 247[247]+2237[2237]->2238 246[246]+2238[2238]->2239 2234[2234]+2239[2239]->2240 253[253]+254[254]->2241 252[252]+2241[2241]->2242 2242[2242]+255[255]->2243 256[256]+257[257]->2244 2244[2244]+258[258]->2245 2243[2243]+2245[2245]->2246 2240[2240]+2246[2246]->2247 259[259]+260[260]->2248 261[261]+262[262]->2249 2248[2248]+2249[2249]->2250 2250[2250]+263[263]->2251 2251[2251]+264[264]->2252 265[265]+266[266]->2253 2253[2253]+267[267]->2254 268[268]+269[269]->2255 2254[2254]+2255[2255]->2256 270[270]+271[271]->2257 273[273]+274[274]->2258 272[272]+2258[2258]->2259 2259[2259]+275[275]->2260 2257[2257]+2260[2260]->2261 2256[2256]+2261[2261]->2262 277[277]+278[278]->2263 281[281]+282[282]->2264 280[280]+2264[2264]->2265 283[283]+284[284]->2266 2266[2266]+285[285]->2267 2267[2267]+286[286]->2268 2265[2265]+2268[2268]->2269 279[279]+2269[2269]->2270 2263[2263]+2270[2270]->2271 276[276]+2271[2271]->2272 2272[2272]+287[287]->2273 288[288]+289[289]->2274 2274[2274]+290[290]->2275 2273[2273]+2275[2275]->2276 291[291]+292[292]->2277 293[293]+294[294]->2278 298[298]+299[299]->2279 297[297]+2279[2279]->2280 296[296]+2280[2280]->2281 295[295]+2281[2281]->2282 2278[2278]+2282[2282]->2283 2277[2277]+2283[2283]->2284 2276[2276]+2284[2284]->2285 301[301]+302[302]->2286 300[300]+2286[2286]->2287 2285[2285]+2287[2287]->2288 2262[2262]+2288[2288]->2289 303[303]+304[304]->2290 2290[2290]+305[305]->2291 2289[2289]+2291[2291]->2292 2252[2252]+2292[2292]->2293 306[306]+307[307]->2294 2293[2293]+2294[2294]->2295 2247[2247]+2295[2295]->2296 2232[2232]+2296[2296]->2297 239[239]+2297[2297]->2298 2230[2230]+2298[2298]->2299 2191[2191]+2299[2299]->2300 196[196]+2300[2300]->2301 309[309]+310[310]->2302 308[308]+2302[2302]->2303 311[311]+312[312]->2304 2304[2304]+313[313]->2305 2305[2305]+314[314]->2306 2303[2303]+2306[2306]->2307 317[317]+318[318]->2308 316[316]+2308[2308]->2309 315[315]+2309[2309]->2310 319[319]+320[320]->2311 2310[2310]+2311[2311]->2312 325[325]+326[326]->2313 2313[2313]+327[327]->2314 324[324]+2314[2314]->2315 323[323]+2315[2315]->2316 322[322]+2316[2316]->2317 328[328]+329[329]->2318 331[331]+332[332]->2319 330[330]+2319[2319]->2320 2318[2318]+2320[2320]->2321 333[333]+334[334]->2322 337[337]+338[338]->2323 336[336]+2323[2323]->2324 335[335]+2324[2324]->2325 2322[2322]+2325[2325]->2326 341[341]+342[342]->2327 340[340]+2327[2327]->2328 339[339]+2328[2328]->2329 2329[2329]+343[343]->2330 2330[2330]+344[344]->2331 2326[2326]+2331[2331]->2332 345[345]+346[346]->2333 2332[2332]+2333[2333]->2334 2321[2321]+2334[2334]->2335 2335[2335]+347[347]->2336 2317[2317]+2336[2336]->2337 348[348]+349[349]->2338 2337[2337]+2338[2338]->2339 321[321]+2339[2339]->2340 2312[2312]+2340[2340]->2341 2307[2307]+2341[2341]->2342 350[350]+351[351]->2343 353[353]+354[354]->2344 356[356]+357[357]->2345 2345[2345]+358[358]->2346 355[355]+2346[2346]->2347 359[359]+360[360]->2348 2347[2347]+2348[2348]->2349 2344[2344]+2349[2349]->2350 352[352]+2350[2350]->2351 361[361]+362[362]->2352 363[363]+364[364]->2353 365[365]+366[366]->2354 2353[2353]+2354[2354]->2355 2352[2352]+2355[2355]->2356 2356[2356]+367[367]->2357 2351[2351]+2357[2357]->2358 2343[2343]+2358[2358]->2359 369[369]+370[370]->2360 368[368]+2360[2360]->2361 372[372]+373[373]->2362 371[371]+2362[2362]->2363 2361[2361]+2363[2363]->2364 2359[2359]+2364[2364]->2365 374[374]+375[375]->2366 377[377]+378[378]->2367 376[376]+2367[2367]->2368 381[381]+382[382]->2369 380[380]+2369[2369]->2370 384[384]+385[385]->2371 383[383]+2371[2371]->2372 2370[2370]+2372[2372]->2373 379[379]+2373[2373]->2374 2368[2368]+2374[2374]->2375 386[386]+387[387]->2376 388[388]+389[389]->2377 390[390]+391[391]->2378 392[392]+393[393]->2379 394[394]+395[395]->2380 398[398]+399[399]->2381 397[397]+2381[2381]->2382 396[396]+2382[2382]->2383 2380[2380]+2383[2383]->2384 2384[2384]+400[400]->2385 2379[2379]+2385[2385]->2386 2378[2378]+2386[2386]->2387 402[402]+403[403]->2388 404[404]+405[405]->2389 2389[2389]+406[406]->2390 2388[2388]+2390[2390]->2391 401[401]+2391[2391]->2392 2392[2392]+407[407]->2393 2387[2387]+2393[2393]->2394 410[410]+411[411]->2395 409[409]+2395[2395]->2396 2396[2396]+412[412]->2397 2397[2397]+413[413]->2398 408[408]+2398[2398]->2399 415[415]+416[416]->2400 414[414]+2400[2400]->2401 418[418]+419[419]->2402 2402[2402]+420[420]->2403 417[417]+2403[2403]->2404 2404[2404]+421[421]->2405 2401[2401]+2405[2405]->2406 2399[2399]+2406[2406]->2407 424[424]+425[425]->2408 423[423]+2408[2408]->2409 426[426]+427[427]->2410 2409[2409]+2410[2410]->2411 422[422]+2411[2411]->2412 2407[2407]+2412[2412]->2413 428[428]+429[429]->2414 430[430]+431[431]->2415 2414[2414]+2415[2415]->2416 2413[2413]+2416[2416]->2417 2417[2417]+432[432]->2418 433[433]+434[434]->2419 2418[2418]+2419[2419]->2420 436[436]+437[437]->2421 2421[2421]+438[438]->2422 439[439]+440[440]->2423 2422[2422]+2423[2423]->2424 435[435]+2424[2424]->2425 2420[2420]+2425[2425]->2426 441[441]+442[442]->2427 2426[2426]+2427[2427]->2428 2394[2394]+2428[2428]->2429 444[444]+445[445]->2430 2430[2430]+446[446]->2431 447[447]+448[448]->2432 2431[2431]+2432[2432]->2433 2433[2433]+449[449]->2434 443[443]+2434[2434]->2435 450[450]+451[451]->2436 2435[2435]+2436[2436]->2437 2429[2429]+2437[2437]->2438 2377[2377]+2438[2438]->2439 2376[2376]+2439[2439]->2440 453[453]+454[454]->2441 2441[2441]+455[455]->2442 452[452]+2442[2442]->2443 459[459]+460[460]->2444 458[458]+2444[2444]->2445 457[457]+2445[2445]->2446 456[456]+2446[2446]->2447 2447[2447]+461[461]->2448 2443[2443]+2448[2448]->2449 464[464]+465[465]->2450 463[463]+2450[2450]->2451 462[462]+2451[2451]->2452 466[466]+467[467]->2453 2452[2452]+2453[2453]->2454 469[469]+470[470]->2455 468[468]+2455[2455]->2456 473[473]+474[474]->2457 472[472]+2457[2457]->2458 475[475]+476[476]->2459 2459[2459]+477[477]->2460 2458[2458]+2460[2460]->2461 479[479]+480[480]->2462 2462[2462]+481[481]->2463 484[484]+485[485]->2464 483[483]+2464[2464]->2465 482[482]+2465[2465]->2466 2463[2463]+2466[2466]->2467 478[478]+2467[2467]->2468 2468[2468]+486[486]->2469 2461[2461]+2469[2469]->2470 2470[2470]+487[487]->2471 471[471]+2471[2471]->2472 2456[2456]+2472[2472]->2473 496[496]+497[497]->2474 495[495]+2474[2474]->2475 498[498]+499[499]->2476 2476[2476]+500[500]->2477 2477[2477]+501[501]->2478 2475[2475]+2478[2478]->2479 494[494]+2479[2479]->2480 502[502]+503[503]->2481 505[505]+506[506]->2482 2482[2482]+507[507]->2483 504[504]+2483[2483]->2484 2481[2481]+2484[2484]->2485 2480[2480]+2485[2485]->2486 493[493]+2486[2486]->2487 492[492]+2487[2487]->2488 491[491]+2488[2488]->2489 509[509]+510[510]->2490 508[508]+2490[2490]->2491 2489[2489]+2491[2491]->2492 490[490]+2492[2492]->2493 489[489]+2493[2493]->2494 488[488]+2494[2494]->2495 2495[2495]+511[511]->2496 2473[2473]+2496[2496]->2497 2454[2454]+2497[2497]->2498 2449[2449]+2498[2498]->2499 2440[2440]+2499[2499]->2500 2375[2375]+2500[2500]->2501 2366[2366]+2501[2501]->2502 2502[2502]+512[512]->2503 2365[2365]+2503[2503]->2504 515[515]+516[516]->2505 514[514]+2505[2505]->2506 520[520]+521[521]->2507 519[519]+2507[2507]->2508 2508[2508]+522[522]->2509 524[524]+525[525]->2510 2510[2510]+526[526]->2511 527[527]+528[528]->2512 2511[2511]+2512[2512]->2513 523[523]+2513[2513]->2514 2509[2509]+2514[2514]->2515 518[518]+2515[2515]->2516 517[517]+2516[2516]->2517 529[529]+530[530]->2518 537[537]+538[538]->2519 536[536]+2519[2519]->2520 535[535]+2520[2520]->2521 539[539]+540[540]->2522 2521[2521]+2522[2522]->2523 534[534]+2523[2523]->2524 2524[2524]+541[541]->2525 543[543]+544[544]->2526 542[542]+2526[2526]->2527 2525[2525]+2527[2527]->2528 533[533]+2528[2528]->2529 532[532]+2529[2529]->2530 546[546]+547[547]->2531 545[545]+2531[2531]->2532 2532[2532]+548[548]->2533 550[550]+551[551]->2534 549[549]+2534[2534]->2535 2533[2533]+2535[2535]->2536 2530[2530]+2536[2536]->2537 531[531]+2537[2537]->2538 2518[2518]+2538[2538]->2539 2517[2517]+2539[2539]->2540 2506[2506]+2540[2540]->2541 513[513]+2541[2541]->2542 2504[2504]+2542[2542]->2543 2342[2342]+2543[2543]->2544 555[555]+556[556]->2545 554[554]+2545[2545]->2546 553[553]+2546[2546]->2547 557[557]+558[558]->2548 559[559]+560[560]->2549 2548[2548]+2549[2549]->2550 2547[2547]+2550[2550]->2551 552[552]+2551[2551]->2552 561[561]+562[562]->2553 563[563]+564[564]->2554 2554[2554]+565[565]->2555 572[572]+573[573]->2556 2556[2556]+574[574]->2557 579[579]+580[580]->2558 2558[2558]+581[581]->2559 578[578]+2559[2559]->2560 577[577]+2560[2560]->2561 576[576]+2561[2561]->2562 575[575]+2562[2562]->2563 2557[2557]+2563[2563]->2564 571[571]+2564[2564]->2565 570[570]+2565[2565]->2566 584[584]+585[585]->2567 2567[2567]+586[586]->2568 583[583]+2568[2568]->2569 588[588]+589[589]->2570 592[592]+593[593]->2571 2571[2571]+594[594]->2572 591[591]+2572[2572]->2573 596[596]+597[597]->2574 599[599]+600[600]->2575 598[598]+2575[2575]->2576 2574[2574]+2576[2576]->2577 595[595]+2577[2577]->2578 602[602]+603[603]->2579 601[601]+2579[2579]->2580 2578[2578]+2580[2580]->2581 2573[2573]+2581[2581]->2582 604[604]+605[605]->2583 2583[2583]+606[606]->2584 2582[2582]+2584[2584]->2585 607[607]+608[608]->2586 2585[2585]+2586[2586]->2587 590[590]+2587[2587]->2588 611[611]+612[612]->2589 2589[2589]+613[613]->2590 610[610]+2590[2590]->2591 609[609]+2591[2591]->2592 2588[2588]+2592[2592]->2593 2570[2570]+2593[2593]->2594 615[615]+616[616]->2595 614[614]+2595[2595]->2596 2594[2594]+2596[2596]->2597 587[587]+2597[2597]->2598 618[618]+619[619]->2599 617[617]+2599[2599]->2600 2598[2598]+2600[2600]->2601 621[621]+622[622]->2602 624[624]+625[625]->2603 623[623]+2603[2603]->2604 2602[2602]+2604[2604]->2605 626[626]+627[627]->2606 2605[2605]+2606[2606]->2607 620[620]+2607[2607]->2608 630[630]+631[631]->2609 629[629]+2609[2609]->2610 628[628]+2610[2610]->2611 2608[2608]+2611[2611]->2612 632[632]+633[633]->2613 2612[2612]+2613[2613]->2614 2601[2601]+2614[2614]->2615 2569[2569]+2615[2615]->2616 582[582]+2616[2616]->2617 2617[2617]+634[634]->2618 2566[2566]+2618[2618]->2619 569[569]+2619[2619]->2620 568[568]+2620[2620]->2621 567[567]+2621[2621]->2622 566[566]+2622[2622]->2623 637[637]+638[638]->2624 636[636]+2624[2624]->2625 639[639]+640[640]->2626 641[641]+642[642]->2627 643[643]+644[644]->2628 2628[2628]+645[645]->2629 2629[2629]+646[646]->2630 647[647]+648[648]->2631 2630[2630]+2631[2631]->2632 2632[2632]+649[649]->2633 2627[2627]+2633[2633]->2634 2626[2626]+2634[2634]->2635 2625[2625]+2635[2635]->2636 2636[2636]+650[650]->2637 635[635]+2637[2637]->2638 2623[2623]+2638[2638]->2639 2555[2555]+2639[2639]->2640 652[652]+653[653]->2641 2641[2641]+654[654]->2642 651[651]+2642[2642]->2643 2643[2643]+655[655]->2644 661[661]+662[662]->2645 660[660]+2645[2645]->2646 2646[2646]+663[663]->2647 665[665]+666[666]->2648 2648[2648]+667[667]->2649 668[668]+669[669]->2650 2649[2649]+2650[2650]->2651 664[664]+2651[2651]->2652 2647[2647]+2652[2652]->2653 659[659]+2653[2653]->2654 658[658]+2654[2654]->2655 657[657]+2655[2655]->2656 656[656]+2656[2656]->2657 2644[2644]+2657[2657]->2658 672[672]+673[673]->2659 671[671]+2659[2659]->2660 670[670]+2660[2660]->2661 674[674]+675[675]->2662 2662[2662]+676[676]->2663 2661[2661]+2663[2663]->2664 2664[2664]+677[677]->2665 2658[2658]+2665[2665]->2666 2640[2640]+2666[2666]->2667 679[679]+680[680]->2668 678[678]+2668[2668]->2669 681[681]+682[682]->2670 683[683]+684[684]->2671 2670[2670]+2671[2671]->2672 2669[2669]+2672[2672]->2673 686[686]+687[687]->2674 685[685]+2674[2674]->2675 2673[2673]+2675[2675]->2676 2667[2667]+2676[2676]->2677 2553[2553]+2677[2677]->2678 695[695]+696[696]->2679 694[694]+2679[2679]->2680 693[693]+2680[2680]->2681 692[692]+2681[2681]->2682 691[691]+2682[2682]->2683 690[690]+2683[2683]->2684 689[689]+2684[2684]->2685 697[697]+698[698]->2686 701[701]+702[702]->2687 700[700]+2687[2687]->2688 703[703]+704[704]->2689 2688[2688]+2689[2689]->2690 699[699]+2690[2690]->2691 2686[2686]+2691[2691]->2692 706[706]+707[707]->2693 705[705]+2693[2693]->2694 2694[2694]+708[708]->2695 711[711]+712[712]->2696 710[710]+2696[2696]->2697 709[709]+2697[2697]->2698 713[713]+714[714]->2699 715[715]+716[716]->2700 718[718]+719[719]->2701 720[720]+721[721]->2702 2702[2702]+722[722]->2703 2703[2703]+723[723]->2704 2701[2701]+2704[2704]->2705 725[725]+726[726]->2706 727[727]+728[728]->2707 2706[2706]+2707[2707]->2708 724[724]+2708[2708]->2709 2705[2705]+2709[2709]->2710 717[717]+2710[2710]->2711 733[733]+734[734]->2712 732[732]+2712[2712]->2713 731[731]+2713[2713]->2714 736[736]+737[737]->2715 735[735]+2715[2715]->2716 738[738]+739[739]->2717 741[741]+742[742]->2718 743[743]+744[744]->2719 745[745]+746[746]->2720 2720[2720]+747[747]->2721 2719[2719]+2721[2721]->2722 2722[2722]+748[748]->2723 751[751]+752[752]->2724 753[753]+754[754]->2725 2724[2724]+2725[2725]->2726 750[750]+2726[2726]->2727 749[749]+2727[2727]->2728 2723[2723]+2728[2728]->2729 2718[2718]+2729[2729]->2730 740[740]+2730[2730]->2731 755[755]+756[756]->2732 2731[2731]+2732[2732]->2733 2717[2717]+2733[2733]->2734 2716[2716]+2734[2734]->2735 2714[2714]+2735[2735]->2736 730[730]+2736[2736]->2737 729[729]+2737[2737]->2738 2711[2711]+2738[2738]->2739 757[757]+758[758]->2740 759[759]+760[760]->2741 2740[2740]+2741[2741]->2742 2739[2739]+2742[2742]->2743 2743[2743]+761[761]->2744 2744[2744]+762[762]->2745 2700[2700]+2745[2745]->2746 766[766]+767[767]->2747 769[769]+770[770]->2748 768[768]+2748[2748]->2749 2747[2747]+2749[2749]->2750 765[765]+2750[2750]->2751 764[764]+2751[2751]->2752 763[763]+2752[2752]->2753 2746[2746]+2753[2753]->2754 2699[2699]+2754[2754]->2755 773[773]+774[774]->2756 772[772]+2756[2756]->2757 771[771]+2757[2757]->2758 2755[2755]+2758[2758]->2759 2698[2698]+2759[2759]->2760 2695[2695]+2760[2760]->2761 2692[2692]+2761[2761]->2762 2685[2685]+2762[2762]->2763 688[688]+2763[2763]->2764 777[777]+778[778]->2765 780[780]+781[781]->2766 779[779]+2766[2766]->2767 2767[2767]+782[782]->2768 783[783]+784[784]->2769 2768[2768]+2769[2769]->2770 789[789]+790[790]->2771 788[788]+2771[2771]->2772 787[787]+2772[2772]->2773 786[786]+2773[2773]->2774 792[792]+793[793]->2775 791[791]+2775[2775]->2776 2774[2774]+2776[2776]->2777 785[785]+2777[2777]->2778 2770[2770]+2778[2778]->2779 2779[2779]+794[794]->2780 2780[2780]+795[795]->2781 2765[2765]+2781[2781]->2782 796[796]+797[797]->2783 799[799]+800[800]->2784 798[798]+2784[2784]->2785 2783[2783]+2785[2785]->2786 2782[2782]+2786[2786]->2787 801[801]+802[802]->2788 2787[2787]+2788[2788]->2789 804[804]+805[805]->2790 803[803]+2790[2790]->2791 807[807]+808[808]->2792 806[806]+2792[2792]->2793 2791[2791]+2793[2793]->2794 811[811]+812[812]->2795 810[810]+2795[2795]->2796 809[809]+2796[2796]->2797 2794[2794]+2797[2797]->2798 814[814]+815[815]->2799 2799[2799]+816[816]->2800 813[813]+2800[2800]->2801 2798[2798]+2801[2801]->2802 2789[2789]+2802[2802]->2803 776[776]+2803[2803]->2804 819[819]+820[820]->2805 818[818]+2805[2805]->2806 824[824]+825[825]->2807 823[823]+2807[2807]->2808 822[822]+2808[2808]->2809 821[821]+2809[2809]->2810 830[830]+831[831]->2811 829[829]+2811[2811]->2812 828[828]+2812[2812]->2813 827[827]+2813[2813]->2814 834[834]+835[835]->2815 2815[2815]+836[836]->2816 833[833]+2816[2816]->2817 832[832]+2817[2817]->2818 2814[2814]+2818[2818]->2819 826[826]+2819[2819]->2820 837[837]+838[838]->2821 2820[2820]+2821[2821]->2822 2810[2810]+2822[2822]->2823 2806[2806]+2823[2823]->2824 817[817]+2824[2824]->2825 840[840]+841[841]->2826 839[839]+2826[2826]->2827 842[842]+843[843]->2828 2827[2827]+2828[2828]->2829 844[844]+845[845]->2830 2830[2830]+846[846]->2831 2831[2831]+847[847]->2832 2829[2829]+2832[2832]->2833 2833[2833]+848[848]->2834 2834[2834]+849[849]->2835 850[850]+851[851]->2836 2835[2835]+2836[2836]->2837 2825[2825]+2837[2837]->2838 853[853]+854[854]->2839 852[852]+2839[2839]->2840 2838[2838]+2840[2840]->2841 2804[2804]+2841[2841]->2842 855[855]+856[856]->2843 857[857]+858[858]->2844 860[860]+861[861]->2845 859[859]+2845[2845]->2846 2844[2844]+2846[2846]->2847 2843[2843]+2847[2847]->2848 2842[2842]+2848[2848]->2849 864[864]+865[865]->2850 863[863]+2850[2850]->2851 862[862]+2851[2851]->2852 2849[2849]+2852[2852]->2853 775[775]+2853[2853]->2854 866[866]+867[867]->2855 2854[2854]+2855[2855]->2856 868[868]+869[869]->2857 2856[2856]+2857[2857]->2858 872[872]+873[873]->2859 871[871]+2859[2859]->2860 870[870]+2860[2860]->2861 875[875]+876[876]->2862 874[874]+2862[2862]->2863 878[878]+879[879]->2864 877[877]+2864[2864]->2865 2865[2865]+880[880]->2866 2866[2866]+881[881]->2867 2863[2863]+2867[2867]->2868 2861[2861]+2868[2868]->2869 2869[2869]+882[882]->2870 886[886]+887[887]->2871 885[885]+2871[2871]->2872 2872[2872]+888[888]->2873 884[884]+2873[2873]->2874 883[883]+2874[2874]->2875 2870[2870]+2875[2875]->2876 2858[2858]+2876[2876]->2877 2764[2764]+2877[2877]->2878 893[893]+894[894]->2879 2879[2879]+895[895]->2880 2880[2880]+896[896]->2881 892[892]+2881[2881]->2882 897[897]+898[898]->2883 900[900]+901[901]->2884 899[899]+2884[2884]->2885 2885[2885]+902[902]->2886 2883[2883]+2886[2886]->2887 2882[2882]+2887[2887]->2888 891[891]+2888[2888]->2889 904[904]+905[905]->2890 903[903]+2890[2890]->2891 2889[2889]+2891[2891]->2892 907[907]+908[908]->2893 2893[2893]+909[909]->2894 906[906]+2894[2894]->2895 913[913]+914[914]->2896 915[915]+916[916]->2897 2896[2896]+2897[2897]->2898 912[912]+2898[2898]->2899 919[919]+920[920]->2900 918[918]+2900[2900]->2901 917[917]+2901[2901]->2902 2899[2899]+2902[2902]->2903 911[911]+2903[2903]->2904 910[910]+2904[2904]->2905 2895[2895]+2905[2905]->2906 921[921]+922[922]->2907 2906[2906]+2907[2907]->2908 2892[2892]+2908[2908]->2909 923[923]+924[924]->2910 2910[2910]+925[925]->2911 2909[2909]+2911[2911]->2912 890[890]+2912[2912]->2913 929[929]+930[930]->2914 931[931]+932[932]->2915 2914[2914]+2915[2915]->2916 933[933]+934[934]->2917 2916[2916]+2917[2917]->2918 928[928]+2918[2918]->2919 2919[2919]+935[935]->2920 936[936]+937[937]->2921 938[938]+939[939]->2922 2922[2922]+940[940]->2923 2921[2921]+2923[2923]->2924 2924[2924]+941[941]->2925 942[942]+943[943]->2926 944[944]+945[945]->2927 948[948]+949[949]->2928 947[947]+2928[2928]->2929 946[946]+2929[2929]->2930 2927[2927]+2930[2930]->2931 2926[2926]+2931[2931]->2932 2925[2925]+2932[2932]->2933 2920[2920]+2933[2933]->2934 927[927]+2934[2934]->2935 2935[2935]+950[950]->2936 951[951]+952[952]->2937 953[953]+954[954]->2938 2938[2938]+955[955]->2939 2939[2939]+956[956]->2940 2937[2937]+2940[2940]->2941 961[961]+962[962]->2942 963[963]+964[964]->2943 2943[2943]+965[965]->2944 2942[2942]+2944[2944]->2945 966[966]+967[967]->2946 2945[2945]+2946[2946]->2947 2947[2947]+968[968]->2948 960[960]+2948[2948]->2949 970[970]+971[971]->2950 969[969]+2950[2950]->2951 972[972]+973[973]->2952 976[976]+977[977]->2953 978[978]+979[979]->2954 2953[2953]+2954[2954]->2955 975[975]+2955[2955]->2956 974[974]+2956[2956]->2957 2952[2952]+2957[2957]->2958 2951[2951]+2958[2958]->2959 981[981]+982[982]->2960 980[980]+2960[2960]->2961 2961[2961]+983[983]->2962 2959[2959]+2962[2962]->2963 2949[2949]+2963[2963]->2964 984[984]+985[985]->2965 2965[2965]+986[986]->2966 987[987]+988[988]->2967 2966[2966]+2967[2967]->2968 2964[2964]+2968[2968]->2969 989[989]+990[990]->2970 995[995]+996[996]->2971 994[994]+2971[2971]->2972 997[997]+998[998]->2973 2972[2972]+2973[2973]->2974 993[993]+2974[2974]->2975 992[992]+2975[2975]->2976 1000[1000]+1001[1001]->2977 2977[2977]+1002[1002]->2978 999[999]+2978[2978]->2979 2979[2979]+1003[1003]->2980 2980[2980]+1004[1004]->2981 2976[2976]+2981[2981]->2982 991[991]+2982[2982]->2983 2970[2970]+2983[2983]->2984 1006[1006]+1007[1007]->2985 2985[2985]+1008[1008]->2986 2986[2986]+1009[1009]->2987 1005[1005]+2987[2987]->2988 2988[2988]+1010[1010]->2989 2989[2989]+1011[1011]->2990 2984[2984]+2990[2990]->2991 2991[2991]+1012[1012]->2992 2969[2969]+2992[2992]->2993 959[959]+2993[2993]->2994 1015[1015]+1016[1016]->2995 1014[1014]+2995[2995]->2996 1013[1013]+2996[2996]->2997 1020[1020]+1021[1021]->2998 1023[1023]+1024[1024]->2999 1026[1026]+1027[1027]->3000 3000[3000]+1028[1028]->3001 3001[3001]+1029[1029]->3002 3002[3002]+1030[1030]->3003 1025[1025]+3003[3003]->3004 2999[2999]+3004[3004]->3005 3005[3005]+1031[1031]->3006 1032[1032]+1033[1033]->3007 3006[3006]+3007[3007]->3008 1022[1022]+3008[3008]->3009 1035[1035]+1036[1036]->3010 1034[1034]+3010[3010]->3011 3009[3009]+3011[3011]->3012 2998[2998]+3012[3012]->3013 1019[1019]+3013[3013]->3014 1018[1018]+3014[3014]->3015 1039[1039]+1040[1040]->3016 1042[1042]+1043[1043]->3017 1041[1041]+3017[3017]->3018 3016[3016]+3018[3018]->3019 3019[3019]+1044[1044]->3020 1038[1038]+3020[3020]->3021 1037[1037]+3021[3021]->3022 1045[1045]+1046[1046]->3023 3022[3022]+3023[3023]->3024 1047[1047]+1048[1048]->3025 3024[3024]+3025[3025]->3026 3026[3026]+1049[1049]->3027 1052[1052]+1053[1053]->3028 1051[1051]+3028[3028]->3029 1054[1054]+1055[1055]->3030 3029[3029]+3030[3030]->3031 1057[1057]+1058[1058]->3032 1056[1056]+3032[3032]->3033 3033[3033]+1059[1059]->3034 3031[3031]+3034[3034]->3035 1050[1050]+3035[3035]->3036 1060[1060]+1061[1061]->3037 1062[1062]+1063[1063]->3038 1064[1064]+1065[1065]->3039 3038[3038]+3039[3039]->3040 3037[3037]+3040[3040]->3041 1066[1066]+1067[1067]->3042 3041[3041]+3042[3042]->3043 3043[3043]+1068[1068]->3044 1069[1069]+1070[1070]->3045 1072[1072]+1073[1073]->3046 1071[1071]+3046[3046]->3047 3047[3047]+1074[1074]->3048 3045[3045]+3048[3048]->3049 3049[3049]+1075[1075]->3050 3044[3044]+3050[3050]->3051 1077[1077]+1078[1078]->3052 1076[1076]+3052[3052]->3053 3051[3051]+3053[3053]->3054 3036[3036]+3054[3054]->3055 1084[1084]+1085[1085]->3056 1083[1083]+3056[3056]->3057 1082[1082]+3057[3057]->3058 1081[1081]+3058[3058]->3059 1086[1086]+1087[1087]->3060 3059[3059]+3060[3060]->3061 1080[1080]+3061[3061]->3062 1079[1079]+3062[3062]->3063 1089[1089]+1090[1090]->3064 1094[1094]+1095[1095]->3065 1093[1093]+3065[3065]->3066 3066[3066]+1096[1096]->3067 1092[1092]+3067[3067]->3068 1091[1091]+3068[3068]->3069 3064[3064]+3069[3069]->3070 1101[1101]+1102[1102]->3071 1100[1100]+3071[3071]->3072 1099[1099]+3072[3072]->3073 1098[1098]+3073[3073]->3074 1103[1103]+1104[1104]->3075 1107[1107]+1108[1108]->3076 1106[1106]+3076[3076]->3077 1105[1105]+3077[3077]->3078 3075[3075]+3078[3078]->3079 3074[3074]+3079[3079]->3080 1097[1097]+3080[3080]->3081 3070[3070]+3081[3081]->3082 1088[1088]+3082[3082]->3083 3063[3063]+3083[3083]->3084 3055[3055]+3084[3084]->3085 3027[3027]+3085[3085]->3086 3015[3015]+3086[3086]->3087 1017[1017]+3087[3087]->3088 1109[1109]+1110[1110]->3089 3089[3089]+1111[1111]->3090 1113[1113]+1114[1114]->3091 1112[1112]+3091[3091]->3092 3090[3090]+3092[3092]->3093 1116[1116]+1117[1117]->3094 3094[3094]+1118[1118]->3095 1115[1115]+3095[3095]->3096 1120[1120]+1121[1121]->3097 1119[1119]+3097[3097]->3098 3098[3098]+1122[1122]->3099 1124[1124]+1125[1125]->3100 3100[3100]+1126[1126]->3101 1123[1123]+3101[3101]->3102 1128[1128]+1129[1129]->3103 1127[1127]+3103[3103]->3104 1131[1131]+1132[1132]->3105 1130[1130]+3105[3105]->3106 3106[3106]+1133[1133]->3107 3104[3104]+3107[3107]->3108 3102[3102]+3108[3108]->3109 3099[3099]+3109[3109]->3110 1136[1136]+1137[1137]->3111 1135[1135]+3111[3111]->3112 3112[3112]+1138[1138]->3113 1134[1134]+3113[3113]->3114 3114[3114]+1139[1139]->3115 3110[3110]+3115[3115]->3116 1141[1141]+1142[1142]->3117 1140[1140]+3117[3117]->3118 3116[3116]+3118[3118]->3119 1147[1147]+1148[1148]->3120 1146[1146]+3120[3120]->3121 1145[1145]+3121[3121]->3122 1144[1144]+3122[3122]->3123 1143[1143]+3123[3123]->3124 1149[1149]+1150[1150]->3125 3124[3124]+3125[3125]->3126 3119[3119]+3126[3126]->3127 3127[3127]+1151[1151]->3128 3096[3096]+3128[3128]->3129 1152[1152]+1153[1153]->3130 3130[3130]+1154[1154]->3131 3129[3129]+3131[3131]->3132 3093[3093]+3132[3132]->3133 3088[3088]+3133[3133]->3134 2997[2997]+3134[3134]->3135 1155[1155]+1156[1156]->3136 3135[3135]+3136[3136]->3137 2994[2994]+3137[3137]->3138 958[958]+3138[3138]->3139 957[957]+3139[3139]->3140 3140[3140]+1157[1157]->3141 1159[1159]+1160[1160]->3142 1158[1158]+3142[3142]->3143 3141[3141]+3143[3143]->3144 1166[1166]+1167[1167]->3145 1168[1168]+1169[1169]->3146 3145[3145]+3146[3146]->3147 1165[1165]+3147[3147]->3148 1164[1164]+3148[3148]->3149 1170[1170]+1171[1171]->3150 3149[3149]+3150[3150]->3151 1163[1163]+3151[3151]->3152 1162[1162]+3152[3152]->3153 1161[1161]+3153[3153]->3154 1173[1173]+1174[1174]->3155 1178[1178]+1179[1179]->3156 1182[1182]+1183[1183]->3157 1181[1181]+3157[3157]->3158 1180[1180]+3158[3158]->3159 3156[3156]+3159[3159]->3160 3160[3160]+1184[1184]->3161 1177[1177]+3161[3161]->3162 1188[1188]+1189[1189]->3163 1187[1187]+3163[3163]->3164 1186[1186]+3164[3164]->3165 1191[1191]+1192[1192]->3166 1190[1190]+3166[3166]->3167 3165[3165]+3167[3167]->3168 1185[1185]+3168[3168]->3169 3162[3162]+3169[3169]->3170 3170[3170]+1193[1193]->3171 1176[1176]+3171[3171]->3172 1194[1194]+1195[1195]->3173 1196[1196]+1197[1197]->3174 1201[1201]+1202[1202]->3175 1200[1200]+3175[3175]->3176 1199[1199]+3176[3176]->3177 3177[3177]+1203[1203]->3178 1198[1198]+3178[3178]->3179 3174[3174]+3179[3179]->3180 3173[3173]+3180[3180]->3181 3172[3172]+3181[3181]->3182 1175[1175]+3182[3182]->3183 3155[3155]+3183[3183]->3184 3184[3184]+1204[1204]->3185 1172[1172]+3185[3185]->3186 1205[1205]+1206[1206]->3187 1207[1207]+1208[1208]->3188 3187[3187]+3188[3188]->3189 1209[1209]+1210[1210]->3190 3190[3190]+1211[1211]->3191 1213[1213]+1214[1214]->3192 1212[1212]+3192[3192]->3193 3191[3191]+3193[3193]->3194 1215[1215]+1216[1216]->3195 3194[3194]+3195[3195]->3196 3189[3189]+3196[3196]->3197 1217[1217]+1218[1218]->3198 1220[1220]+1221[1221]->3199 3199[3199]+1222[1222]->3200 1219[1219]+3200[3200]->3201 1225[1225]+1226[1226]->3202 1224[1224]+3202[3202]->3203 1223[1223]+3203[3203]->3204 3204[3204]+1227[1227]->3205 3201[3201]+3205[3205]->3206 3198[3198]+3206[3206]->3207 1228[1228]+1229[1229]->3208 3208[3208]+1230[1230]->3209 3207[3207]+3209[3209]->3210 1233[1233]+1234[1234]->3211 1232[1232]+3211[3211]->3212 1235[1235]+1236[1236]->3213 3213[3213]+1237[1237]->3214 1239[1239]+1240[1240]->3215 1238[1238]+3215[3215]->3216 3214[3214]+3216[3216]->3217 3212[3212]+3217[3217]->3218 1231[1231]+3218[3218]->3219 3210[3210]+3219[3219]->3220 1244[1244]+1245[1245]->3221 1243[1243]+3221[3221]->3222 1242[1242]+3222[3222]->3223 1241[1241]+3223[3223]->3224 3224[3224]+1246[1246]->3225 3220[3220]+3225[3225]->3226 1247[1247]+1248[1248]->3227 3226[3226]+3227[3227]->3228 3197[3197]+3228[3228]->3229 3186[3186]+3229[3229]->3230 3154[3154]+3230[3230]->3231 3144[3144]+3231[3231]->3232 2941[2941]+3232[3232]->3233 2936[2936]+3233[3233]->3234 926[926]+3234[3234]->3235 2913[2913]+3235[3235]->3236 889[889]+3236[3236]->3237 1250[1250]+1251[1251]->3238 1249[1249]+3238[3238]->3239 3239[3239]+1252[1252]->3240 1254[1254]+1255[1255]->3241 3241[3241]+1256[1256]->3242 1260[1260]+1261[1261]->3243 1259[1259]+3243[3243]->3244 1262[1262]+1263[1263]->3245 3244[3244]+3245[3245]->3246 1258[1258]+3246[3246]->3247 1257[1257]+3247[3247]->3248 3248[3248]+1264[1264]->3249 1265[1265]+1266[1266]->3250 1267[1267]+1268[1268]->3251 1270[1270]+1271[1271]->3252 1269[1269]+3252[3252]->3253 3253[3253]+1272[1272]->3254 3251[3251]+3254[3254]->3255 1279[1279]+1280[1280]->3256 3256[3256]+1281[1281]->3257 1282[1282]+1283[1283]->3258 3258[3258]+1284[1284]->3259 1285[1285]+1286[1286]->3260 3260[3260]+1287[1287]->3261 3259[3259]+3261[3261]->3262 1288[1288]+1289[1289]->3263 3262[3262]+3263[3263]->3264 1291[1291]+1292[1292]->3265 1290[1290]+3265[3265]->3266 3264[3264]+3266[3266]->3267 3257[3257]+3267[3267]->3268 1278[1278]+3268[3268]->3269 3269[3269]+1293[1293]->3270 1294[1294]+1295[1295]->3271 3270[3270]+3271[3271]->3272 1277[1277]+3272[3272]->3273 1296[1296]+1297[1297]->3274 1301[1301]+1302[1302]->3275 3275[3275]+1303[1303]->3276 1300[1300]+3276[3276]->3277 1299[1299]+3277[3277]->3278 1298[1298]+3278[3278]->3279 3274[3274]+3279[3279]->3280 1304[1304]+1305[1305]->3281 3280[3280]+3281[3281]->3282 3273[3273]+3282[3282]->3283 1276[1276]+3283[3283]->3284 1275[1275]+3284[3284]->3285 1274[1274]+3285[3285]->3286 1306[1306]+1307[1307]->3287 3287[3287]+1308[1308]->3288 1310[1310]+1311[1311]->3289 1309[1309]+3289[3289]->3290 3288[3288]+3290[3290]->3291 3286[3286]+3291[3291]->3292 1273[1273]+3292[3292]->3293 3255[3255]+3293[3293]->3294 1316[1316]+1317[1317]->3295 1315[1315]+3295[3295]->3296 3296[3296]+1318[1318]->3297 1320[1320]+1321[1321]->3298 3298[3298]+1322[1322]->3299 1319[1319]+3299[3299]->3300 1323[1323]+1324[1324]->3301 3300[3300]+3301[3301]->3302 3297[3297]+3302[3302]->3303 1314[1314]+3303[3303]->3304 1313[1313]+3304[3304]->3305 1325[1325]+1326[1326]->3306 1330[1330]+1331[1331]->3307 1329[1329]+3307[3307]->3308 3308[3308]+1332[1332]->3309 1328[1328]+3309[3309]->3310 3310[3310]+1333[1333]->3311 1334[1334]+1335[1335]->3312 3312[3312]+1336[1336]->3313 1339[1339]+1340[1340]->3314 3314[3314]+1341[1341]->3315 1338[1338]+3315[3315]->3316 3316[3316]+1342[1342]->3317 1337[1337]+3317[3317]->3318 3318[3318]+1343[1343]->3319 3313[3313]+3319[3319]->3320 1346[1346]+1347[1347]->3321 1345[1345]+3321[3321]->3322 1344[1344]+3322[3322]->3323 3320[3320]+3323[3323]->3324 3324[3324]+1348[1348]->3325 3311[3311]+3325[3325]->3326 1327[1327]+3326[3326]->3327 3306[3306]+3327[3327]->3328 1349[1349]+1350[1350]->3329 3328[3328]+3329[3329]->3330 1351[1351]+1352[1352]->3331 1354[1354]+1355[1355]->3332 1353[1353]+3332[3332]->3333 1356[1356]+1357[1357]->3334 1358[1358]+1359[1359]->3335 3334[3334]+3335[3335]->3336 3333[3333]+3336[3336]->3337 1360[1360]+1361[1361]->3338 1362[1362]+1363[1363]->3339 1366[1366]+1367[1367]->3340 3340[3340]+1368[1368]->3341 1365[1365]+3341[3341]->3342 3342[3342]+1369[1369]->3343 3343[3343]+1370[1370]->3344 3344[3344]+1371[1371]->3345 1364[1364]+3345[3345]->3346 3339[3339]+3346[3346]->3347 3338[3338]+3347[3347]->3348 1372[1372]+1373[1373]->3349 1374[1374]+1375[1375]->3350 3349[3349]+3350[3350]->3351 3348[3348]+3351[3351]->3352 3352[3352]+1376[1376]->3353 1379[1379]+1380[1380]->3354 3354[3354]+1381[1381]->3355 3355[3355]+1382[1382]->3356 1383[1383]+1384[1384]->3357 3356[3356]+3357[3357]->3358 3358[3358]+1385[1385]->3359 1378[1378]+3359[3359]->3360 1389[1389]+1390[1390]->3361 1388[1388]+3361[3361]->3362 1387[1387]+3362[3362]->3363 1386[1386]+3363[3363]->3364 1391[1391]+1392[1392]->3365 3365[3365]+1393[1393]->3366 3364[3364]+3366[3366]->3367 3367[3367]+1394[1394]->3368 3368[3368]+1395[1395]->3369 3369[3369]+1396[1396]->3370 3370[3370]+1397[1397]->3371 1398[1398]+1399[1399]->3372 1400[1400]+1401[1401]->3373 3373[3373]+1402[1402]->3374 3374[3374]+1403[1403]->3375 3372[3372]+3375[3375]->3376 1404[1404]+1405[1405]->3377 3376[3376]+3377[3377]->3378 3378[3378]+1406[1406]->3379 1407[1407]+1408[1408]->3380 3379[3379]+3380[3380]->3381 1413[1413]+1414[1414]->3382 1412[1412]+3382[3382]->3383 3383[3383]+1415[1415]->3384 3384[3384]+1416[1416]->3385 1411[1411]+3385[3385]->3386 1410[1410]+3386[3386]->3387 1418[1418]+1419[1419]->3388 1420[1420]+1421[1421]->3389 1423[1423]+1424[1424]->3390 1422[1422]+3390[3390]->3391 3389[3389]+3391[3391]->3392 3388[3388]+3392[3392]->3393 1425[1425]+1426[1426]->3394 3393[3393]+3394[3394]->3395 1417[1417]+3395[3395]->3396 3387[3387]+3396[3396]->3397 1409[1409]+3397[3397]->3398 1427[1427]+1428[1428]->3399 3398[3398]+3399[3399]->3400 3400[3400]+1429[1429]->3401 3381[3381]+3401[3401]->3402 3371[3371]+3402[3402]->3403 3360[3360]+3403[3403]->3404 1377[1377]+3404[3404]->3405 3353[3353]+3405[3405]->3406 3337[3337]+3406[3406]->3407 3331[3331]+3407[3407]->3408 3330[3330]+3408[3408]->3409 1432[1432]+1433[1433]->3410 3410[3410]+1434[1434]->3411 3411[3411]+1435[1435]->3412 1431[1431]+3412[3412]->3413 1438[1438]+1439[1439]->3414 1442[1442]+1443[1443]->3415 1441[1441]+3415[3415]->3416 1440[1440]+3416[3416]->3417 3414[3414]+3417[3417]->3418 1437[1437]+3418[3418]->3419 1436[1436]+3419[3419]->3420 3413[3413]+3420[3420]->3421 1430[1430]+3421[3421]->3422 3409[3409]+3422[3422]->3423 3305[3305]+3423[3423]->3424 1312[1312]+3424[3424]->3425 1447[1447]+1448[1448]->3426 1446[1446]+3426[3426]->3427 1445[1445]+3427[3427]->3428 1449[1449]+1450[1450]->3429 1451[1451]+1452[1452]->3430 3429[3429]+3430[3430]->3431 3428[3428]+3431[3431]->3432 1444[1444]+3432[3432]->3433 1454[1454]+1455[1455]->3434 1453[1453]+3434[3434]->3435 3433[3433]+3435[3435]->3436 1457[1457]+1458[1458]->3437 3437[3437]+1459[1459]->3438 1461[1461]+1462[1462]->3439 1464[1464]+1465[1465]->3440 1463[1463]+3440[3440]->3441 3439[3439]+3441[3441]->3442 1460[1460]+3442[3442]->3443 3438[3438]+3443[3443]->3444 1456[1456]+3444[3444]->3445 1471[1471]+1472[1472]->3446 1470[1470]+3446[3446]->3447 1473[1473]+1474[1474]->3448 3447[3447]+3448[3448]->3449 1476[1476]+1477[1477]->3450 1475[1475]+3450[3450]->3451 1479[1479]+1480[1480]->3452 1478[1478]+3452[3452]->3453 3453[3453]+1481[1481]->3454 3454[3454]+1482[1482]->3455 3451[3451]+3455[3455]->3456 1483[1483]+1484[1484]->3457 3456[3456]+3457[3457]->3458 3449[3449]+3458[3458]->3459 3459[3459]+1485[1485]->3460 1469[1469]+3460[3460]->3461 1468[1468]+3461[3461]->3462 1467[1467]+3462[3462]->3463 1466[1466]+3463[3463]->3464 3445[3445]+3464[3464]->3465 1486[1486]+1487[1487]->3466 3465[3465]+3466[3466]->3467 3436[3436]+3467[3467]->3468 3468[3468]+1488[1488]->3469 3469[3469]+1489[1489]->3470 1491[1491]+1492[1492]->3471 1490[1490]+3471[3471]->3472 1493[1493]+1494[1494]->3473 3472[3472]+3473[3473]->3474 1495[1495]+1496[1496]->3475 3474[3474]+3475[3475]->3476 1497[1497]+1498[1498]->3477 3477[3477]+1499[1499]->3478 1500[1500]+1501[1501]->3479 3478[3478]+3479[3479]->3480 1503[1503]+1504[1504]->3481 1506[1506]+1507[1507]->3482 1505[1505]+3482[3482]->3483 1509[1509]+1510[1510]->3484 1508[1508]+3484[3484]->3485 1511[1511]+1512[1512]->3486 3485[3485]+3486[3486]->3487 1513[1513]+1514[1514]->3488 1515[1515]+1516[1516]->3489 3488[3488]+3489[3489]->3490 3487[3487]+3490[3490]->3491 3483[3483]+3491[3491]->3492 3481[3481]+3492[3492]->3493 1502[1502]+3493[3493]->3494 3480[3480]+3494[3494]->3495 1518[1518]+1519[1519]->3496 1517[1517]+3496[3496]->3497 1520[1520]+1521[1521]->3498 3498[3498]+1522[1522]->3499 1523[1523]+1524[1524]->3500 3500[3500]+1525[1525]->3501 3501[3501]+1526[1526]->3502 1527[1527]+1528[1528]->3503 3502[3502]+3503[3503]->3504 3499[3499]+3504[3504]->3505 1529[1529]+1530[1530]->3506 3505[3505]+3506[3506]->3507 3497[3497]+3507[3507]->3508 1536[1536]+1537[1537]->3509 1535[1535]+3509[3509]->3510 3510[3510]+1538[1538]->3511 1534[1534]+3511[3511]->3512 1533[1533]+3512[3512]->3513 1540[1540]+1541[1541]->3514 1539[1539]+3514[3514]->3515 3513[3513]+3515[3515]->3516 1542[1542]+1543[1543]->3517 3516[3516]+3517[3517]->3518 1545[1545]+1546[1546]->3519 1544[1544]+3519[3519]->3520 3518[3518]+3520[3520]->3521 1532[1532]+3521[3521]->3522 1549[1549]+1550[1550]->3523 1548[1548]+3523[3523]->3524 1547[1547]+3524[3524]->3525 3522[3522]+3525[3525]->3526 1551[1551]+1552[1552]->3527 3526[3526]+3527[3527]->3528 1531[1531]+3528[3528]->3529 3508[3508]+3529[3529]->3530 3495[3495]+3530[3530]->3531 1555[1555]+1556[1556]->3532 1554[1554]+3532[3532]->3533 1553[1553]+3533[3533]->3534 1558[1558]+1559[1559]->3535 3535[3535]+1560[1560]->3536 1557[1557]+3536[3536]->3537 3534[3534]+3537[3537]->3538 1561[1561]+1562[1562]->3539 3538[3538]+3539[3539]->3540 3531[3531]+3540[3540]->3541 3476[3476]+3541[3541]->3542 1563[1563]+1564[1564]->3543 1569[1569]+1570[1570]->3544 3544[3544]+1571[1571]->3545 3545[3545]+1572[1572]->3546 3546[3546]+1573[1573]->3547 3547[3547]+1574[1574]->3548 1568[1568]+3548[3548]->3549 3549[3549]+1575[1575]->3550 1576[1576]+1577[1577]->3551 3550[3550]+3551[3551]->3552 1567[1567]+3552[3552]->3553 1566[1566]+3553[3553]->3554 3554[3554]+1578[1578]->3555 1565[1565]+3555[3555]->3556 3543[3543]+3556[3556]->3557 1580[1580]+1581[1581]->3558 1579[1579]+3558[3558]->3559 3557[3557]+3559[3559]->3560 3542[3542]+3560[3560]->3561 1582[1582]+1583[1583]->3562 3562[3562]+1584[1584]->3563 3561[3561]+3563[3563]->3564 3470[3470]+3564[3564]->3565 3425[3425]+3565[3565]->3566 3294[3294]+3566[3566]->3567 1585[1585]+1586[1586]->3568 3567[3567]+3568[3568]->3569 1587[1587]+1588[1588]->3570 1589[1589]+1590[1590]->3571 1591[1591]+1592[1592]->3572 1594[1594]+1595[1595]->3573 3573[3573]+1596[1596]->3574 3574[3574]+1597[1597]->3575 1593[1593]+3575[3575]->3576 3572[3572]+3576[3576]->3577 3571[3571]+3577[3577]->3578 3570[3570]+3578[3578]->3579 1599[1599]+1600[1600]->3580 1598[1598]+3580[3580]->3581 3581[3581]+1601[1601]->3582 1602[1602]+1603[1603]->3583 3582[3582]+3583[3583]->3584 3579[3579]+3584[3584]->3585 1605[1605]+1606[1606]->3586 1604[1604]+3586[3586]->3587 1608[1608]+1609[1609]->3588 3588[3588]+1610[1610]->3589 1607[1607]+3589[3589]->3590 3587[3587]+3590[3590]->3591 1611[1611]+1612[1612]->3592 1614[1614]+1615[1615]->3593 3593[3593]+1616[1616]->3594 1613[1613]+3594[3594]->3595 1617[1617]+1618[1618]->3596 3596[3596]+1619[1619]->3597 3597[3597]+1620[1620]->3598 3598[3598]+1621[1621]->3599 1622[1622]+1623[1623]->3600 3600[3600]+1624[1624]->3601 3599[3599]+3601[3601]->3602 3595[3595]+3602[3602]->3603 3603[3603]+1625[1625]->3604 3592[3592]+3604[3604]->3605 3591[3591]+3605[3605]->3606 3585[3585]+3606[3606]->3607 3569[3569]+3607[3607]->3608 3608[3608]+1626[1626]->3609 3609[3609]+1627[1627]->3610 3250[3250]+3610[3610]->3611 3249[3249]+3611[3611]->3612 3242[3242]+3612[3612]->3613 1253[1253]+3613[3613]->3614 3614[3614]+1628[1628]->3615 3615[3615]+1629[1629]->3616 3240[3240]+3616[3616]->3617 1631[1631]+1632[1632]->3618 1630[1630]+3618[3618]->3619 3619[3619]+1633[1633]->3620 1634[1634]+1635[1635]->3621 1636[1636]+1637[1637]->3622 3621[3621]+3622[3622]->3623 3623[3623]+1638[1638]->3624 3620[3620]+3624[3624]->3625 3617[3617]+3625[3625]->3626 1640[1640]+1641[1641]->3627 1639[1639]+3627[3627]->3628 3626[3626]+3628[3628]->3629 3237[3237]+3629[3629]->3630 1644[1644]+1645[1645]->3631 1643[1643]+3631[3631]->3632 3632[3632]+1646[1646]->3633 1649[1649]+1650[1650]->3634 1648[1648]+3634[3634]->3635 1647[1647]+3635[3635]->3636 1651[1651]+1652[1652]->3637 1653[1653]+1654[1654]->3638 1655[1655]+1656[1656]->3639 3638[3638]+3639[3639]->3640 3637[3637]+3640[3640]->3641 1657[1657]+1658[1658]->3642 1660[1660]+1661[1661]->3643 1659[1659]+3643[3643]->3644 3644[3644]+1662[1662]->3645 3642[3642]+3645[3645]->3646 3641[3641]+3646[3646]->3647 3636[3636]+3647[3647]->3648 1663[1663]+1664[1664]->3649 3649[3649]+1665[1665]->3650 1667[1667]+1668[1668]->3651 1666[1666]+3651[3651]->3652 1670[1670]+1671[1671]->3653 1669[1669]+3653[3653]->3654 3652[3652]+3654[3654]->3655 3650[3650]+3655[3655]->3656 3648[3648]+3656[3656]->3657 3633[3633]+3657[3657]->3658 1642[1642]+3658[3658]->3659 3630[3630]+3659[3659]->3660 1674[1674]+1675[1675]->3661 3661[3661]+1676[1676]->3662 1673[1673]+3662[3662]->3663 1677[1677]+1678[1678]->3664 1680[1680]+1681[1681]->3665 3665[3665]+1682[1682]->3666 1679[1679]+3666[3666]->3667 3664[3664]+3667[3667]->3668 3663[3663]+3668[3668]->3669 1672[1672]+3669[3669]->3670 3660[3660]+3670[3670]->3671 2878[2878]+3671[3671]->3672 2678[2678]+3672[3672]->3673 2552[2552]+3673[3673]->3674 2544[2544]+3674[3674]->3675 1685[1685]+1686[1686]->3676 1684[1684]+3676[3676]->3677 3677[3677]+1687[1687]->3678 1690[1690]+1691[1691]->3679 1689[1689]+3679[3679]->3680 1694[1694]+1695[1695]->3681 1693[1693]+3681[3681]->3682 1697[1697]+1698[1698]->3683 3683[3683]+1699[1699]->3684 1700[1700]+1701[1701]->3685 3684[3684]+3685[3685]->3686 1696[1696]+3686[3686]->3687 3687[3687]+1702[1702]->3688 3682[3682]+3688[3688]->3689 1692[1692]+3689[3689]->3690 3680[3680]+3690[3690]->3691 3691[3691]+1703[1703]->3692 3692[3692]+1704[1704]->3693 3693[3693]+1705[1705]->3694 1688[1688]+3694[3694]->3695 3678[3678]+3695[3695]->3696 1707[1707]+1708[1708]->3697 1710[1710]+1711[1711]->3698 1709[1709]+3698[3698]->3699 1712[1712]+1713[1713]->3700 3699[3699]+3700[3700]->3701 3697[3697]+3701[3701]->3702 1706[1706]+3702[3702]->3703 3703[3703]+1714[1714]->3704 1715[1715]+1716[1716]->3705 1717[1717]+1718[1718]->3706 3705[3705]+3706[3706]->3707 3704[3704]+3707[3707]->3708 3696[3696]+3708[3708]->3709 1719[1719]+1720[1720]->3710 3709[3709]+3710[3710]->3711 1724[1724]+1725[1725]->3712 1723[1723]+3712[3712]->3713 1726[1726]+1727[1727]->3714 3713[3713]+3714[3714]->3715 1722[1722]+3715[3715]->3716 1721[1721]+3716[3716]->3717 1728[1728]+1729[1729]->3718 1731[1731]+1732[1732]->3719 1734[1734]+1735[1735]->3720 1733[1733]+3720[3720]->3721 1738[1738]+1739[1739]->3722 1737[1737]+3722[3722]->3723 1736[1736]+3723[3723]->3724 3721[3721]+3724[3724]->3725 1740[1740]+1741[1741]->3726 3725[3725]+3726[3726]->3727 3719[3719]+3727[3727]->3728 1730[1730]+3728[3728]->3729 3718[3718]+3729[3729]->3730 3717[3717]+3730[3730]->3731 3711[3711]+3731[3731]->3732 1743[1743]+1744[1744]->3733 1746[1746]+1747[1747]->3734 1748[1748]+1749[1749]->3735 3734[3734]+3735[3735]->3736 1745[1745]+3736[3736]->3737 3733[3733]+3737[3737]->3738 1750[1750]+1751[1751]->3739 3738[3738]+3739[3739]->3740 1742[1742]+3740[3740]->3741 1755[1755]+1756[1756]->3742 1754[1754]+3742[3742]->3743 1753[1753]+3743[3743]->3744 1752[1752]+3744[3744]->3745 3745[3745]+1757[1757]->3746 3741[3741]+3746[3746]->3747 3732[3732]+3747[3747]->3748 1683[1683]+3748[3748]->3749 1759[1759]+1760[1760]->3750 1758[1758]+3750[3750]->3751 1762[1762]+1763[1763]->3752 3752[3752]+1764[1764]->3753 1766[1766]+1767[1767]->3754 1765[1765]+3754[3754]->3755 3753[3753]+3755[3755]->3756 1770[1770]+1771[1771]->3757 3757[3757]+1772[1772]->3758 1769[1769]+3758[3758]->3759 1768[1768]+3759[3759]->3760 3760[3760]+1773[1773]->3761 1775[1775]+1776[1776]->3762 1777[1777]+1778[1778]->3763 3762[3762]+3763[3763]->3764 1774[1774]+3764[3764]->3765 3761[3761]+3765[3765]->3766 3756[3756]+3766[3766]->3767 1761[1761]+3767[3767]->3768 1779[1779]+1780[1780]->3769 3768[3768]+3769[3769]->3770 3751[3751]+3770[3770]->3771 3749[3749]+3771[3771]->3772 3675[3675]+3772[3772]->3773 1784[1784]+1785[1785]->3774 3774[3774]+1786[1786]->3775 1783[1783]+3775[3775]->3776 1782[1782]+3776[3776]->3777 1781[1781]+3777[3777]->3778 1788[1788]+1789[1789]->3779 3779[3779]+1790[1790]->3780 1787[1787]+3780[3780]->3781 3778[3778]+3781[3781]->3782 1792[1792]+1793[1793]->3783 1794[1794]+1795[1795]->3784 3783[3783]+3784[3784]->3785 1796[1796]+1797[1797]->3786 3786[3786]+1798[1798]->3787 3787[3787]+1799[1799]->3788 1800[1800]+1801[1801]->3789 3788[3788]+3789[3789]->3790 3785[3785]+3790[3790]->3791 3791[3791]+1802[1802]->3792 1791[1791]+3792[3792]->3793 1803[1803]+1804[1804]->3794 3793[3793]+3794[3794]->3795 1808[1808]+1809[1809]->3796 1807[1807]+3796[3796]->3797 1806[1806]+3797[3797]->3798 1805[1805]+3798[3798]->3799 3799[3799]+1810[1810]->3800 1811[1811]+1812[1812]->3801 3800[3800]+3801[3801]->3802 1813[1813]+1814[1814]->3803 3803[3803]+1815[1815]->3804 1819[1819]+1820[1820]->3805 3805[3805]+1821[1821]->3806 1818[1818]+3806[3806]->3807 1817[1817]+3807[3807]->3808 1816[1816]+3808[3808]->3809 3804[3804]+3809[3809]->3810 3802[3802]+3810[3810]->3811 1823[1823]+1824[1824]->3812 1822[1822]+3812[3812]->3813 1825[1825]+1826[1826]->3814 1827[1827]+1828[1828]->3815 1829[1829]+1830[1830]->3816 1833[1833]+1834[1834]->3817 1832[1832]+3817[3817]->3818 3818[3818]+1835[1835]->3819 1831[1831]+3819[3819]->3820 3820[3820]+1836[1836]->3821 3816[3816]+3821[3821]->3822 1837[1837]+1838[1838]->3823 3822[3822]+3823[3823]->3824 1839[1839]+1840[1840]->3825 3825[3825]+1841[1841]->3826 3824[3824]+3826[3826]->3827 3815[3815]+3827[3827]->3828 3814[3814]+3828[3828]->3829 3813[3813]+3829[3829]->3830 1842[1842]+1843[1843]->3831 1844[1844]+1845[1845]->3832 1850[1850]+1851[1851]->3833 1849[1849]+3833[3833]->3834 1852[1852]+1853[1853]->3835 3834[3834]+3835[3835]->3836 1859[1859]+1860[1860]->3837 3837[3837]+1861[1861]->3838 1858[1858]+3838[3838]->3839 3839[3839]+1862[1862]->3840 1857[1857]+3840[3840]->3841 3841[3841]+1863[1863]->3842 1864[1864]+1865[1865]->3843 3842[3842]+3843[3843]->3844 1856[1856]+3844[3844]->3845 1855[1855]+3845[3845]->3846 1854[1854]+3846[3846]->3847 3836[3836]+3847[3847]->3848 1866[1866]+1867[1867]->3849 3848[3848]+3849[3849]->3850 1848[1848]+3850[3850]->3851 1847[1847]+3851[3851]->3852 1846[1846]+3852[3852]->3853 3832[3832]+3853[3853]->3854 3831[3831]+3854[3854]->3855 3830[3830]+3855[3855]->3856 1869[1869]+1870[1870]->3857 1868[1868]+3857[3857]->3858 1871[1871]+1872[1872]->3859 1875[1875]+1876[1876]->3860 1874[1874]+3860[3860]->3861 1877[1877]+1878[1878]->3862 1879[1879]+1880[1880]->3863 1881[1881]+1882[1882]->3864 3863[3863]+3864[3864]->3865 3862[3862]+3865[3865]->3866 3861[3861]+3866[3866]->3867 3867[3867]+1883[1883]->3868 1886[1886]+1887[1887]->3869 1889[1889]+1890[1890]->3870 1888[1888]+3870[3870]->3871 3869[3869]+3871[3871]->3872 1885[1885]+3872[3872]->3873 1884[1884]+3873[3873]->3874 1891[1891]+1892[1892]->3875 1894[1894]+1895[1895]->3876 1893[1893]+3876[3876]->3877 3875[3875]+3877[3877]->3878 1896[1896]+1897[1897]->3879 3878[3878]+3879[3879]->3880 1899[1899]+1900[1900]->3881 1901[1901]+1902[1902]->3882 3881[3881]+3882[3882]->3883 1898[1898]+3883[3883]->3884 1904[1904]+1905[1905]->3885 1903[1903]+3885[3885]->3886 1907[1907]+1908[1908]->3887 1912[1912]+1913[1913]->3888 1911[1911]+3888[3888]->3889 3889[3889]+1914[1914]->3890 1915[1915]+1916[1916]->3891 3890[3890]+3891[3891]->3892 1910[1910]+3892[3892]->3893 1909[1909]+3893[3893]->3894 1917[1917]+1918[1918]->3895 3894[3894]+3895[3895]->3896 3887[3887]+3896[3896]->3897 1906[1906]+3897[3897]->3898 3886[3886]+3898[3898]->3899 3884[3884]+3899[3899]->3900 1920[1920]+1921[1921]->3901 3901[3901]+1922[1922]->3902 1923[1923]+1924[1924]->3903 1926[1926]+1927[1927]->3904 1925[1925]+3904[3904]->3905 3905[3905]+1928[1928]->3906 3903[3903]+3906[3906]->3907 3902[3902]+3907[3907]->3908 3908[3908]+1929[1929]->3909 1919[1919]+3909[3909]->3910 1931[1931]+1932[1932]->3911 1930[1930]+3911[3911]->3912 3910[3910]+3912[3912]->3913 3913[3913]+1933[1933]->3914 1934[1934]+1935[1935]->3915 3914[3914]+3915[3915]->3916 3900[3900]+3916[3916]->3917 3880[3880]+3917[3917]->3918 3874[3874]+3918[3918]->3919 1937[1937]+1938[1938]->3920 1936[1936]+3920[3920]->3921 3919[3919]+3921[3921]->3922 3868[3868]+3922[3922]->3923 1873[1873]+3923[3923]->3924 1940[1940]+1941[1941]->3925 1939[1939]+3925[3925]->3926 3924[3924]+3926[3926]->3927 3859[3859]+3927[3927]->3928 1943[1943]+1944[1944]->3929 1945[1945]+1946[1946]->3930 3929[3929]+3930[3930]->3931 1942[1942]+3931[3931]->3932 3928[3928]+3932[3932]->3933 3858[3858]+3933[3933]->3934 3856[3856]+3934[3934]->3935 3811[3811]+3935[3935]->3936 1947[1947]+1948[1948]->3937 3936[3936]+3937[3937]->3938 3795[3795]+3938[3938]->3939 3782[3782]+3939[3939]->3940 3773[3773]+3940[3940]->3941 1949[1949]+1950[1950]->3942 3941[3941]+3942[3942]->3943 3943[3943]+1951[1951]->3944 2301[2301]+3944[3944]->3945 1955[1955]+1956[1956]->3946 3946[3946]+1957[1957]->3947 3947[3947]+1958[1958]->3948 3948[3948]+1959[1959]->3949 1954[1954]+3949[3949]->3950 1963[1963]+1964[1964]->3951 1962[1962]+3951[3951]->3952 1961[1961]+3952[3952]->3953 1965[1965]+1966[1966]->3954 1967[1967]+1968[1968]->3955 3955[3955]+1969[1969]->3956 3954[3954]+3956[3956]->3957 3953[3953]+3957[3957]->3958 1960[1960]+3958[3958]->3959 3950[3950]+3959[3959]->3960 1953[1953]+3960[3960]->3961 1952[1952]+3961[3961]->3962 1971[1971]+1972[1972]->3963 1970[1970]+3963[3963]->3964 3964[3964]+1973[1973]->3965 3962[3962]+3965[3965]->3966 3945[3945]+3966[3966]->3967 1974[1974]+1975[1975]->3968 1976[1976]+1977[1977]->3969 3968[3968]+3969[3969]->3970 3967[3967]+3970[3970]->3971 2190[2190]+3971[3971]->3972 1979[1979]+1980[1980]->3973 1981[1981]+1982[1982]->3974 1985[1985]+1986[1986]->3975 1984[1984]+3975[3975]->3976 3976[3976]+1987[1987]->3977 1983[1983]+3977[3977]->3978 3974[3974]+3978[3978]->3979 3979[3979]+1988[1988]->3980 1991[1991]+1992[1992]->3981 1993[1993]+1994[1994]->3982 3981[3981]+3982[3982]->3983 1990[1990]+3983[3983]->3984 1989[1989]+3984[3984]->3985 3980[3980]+3985[3985]->3986 3973[3973]+3986[3986]->3987 1978[1978]+3987[3987]->3988 3972[3972]+3988[3988]->3989 2103[2103]+3989[3989]->3990 2007[2007]+3990[3990]->3991 2004[2004]+3991[3991]->3992 3992[3992]+1995[1995]->3993 3993[3993]+1996[1996]->3994 2002[2002]+3994[3994]->3995 1997[1997]+1998[1998]->3996 3996[3996]+1999[1999]->3997 

TEST 1: NO ASC BIAS
Read testdata/2000.fas: 1251 sites
Log-L: -376539.211547
  Br.Len      logLikelihood       1st Deriv       2nd Deriv
  0.0001     -376662.410545 -2.83159180e+04  5.91239012e+07  *
  0.0010     -376646.551695 -1.25624606e+04  6.20431514e+06  *
  0.0100     -376599.021044 -2.83234165e+03  2.34237871e+05  *
  0.1000     -376540.111656 -8.58666183e+01  4.26252492e+03  *
  1.0000     -376698.940701  1.82867072e+02 -6.06107215e+01  
 10.0000     -377294.479082  2.35183408e+01 -3.19063217e+00  
100.0000     -377685.791460  7.84835181e-01 -1.94758100e-02  

TEST 2: ASC BIAS LEWIS
Log-L: -376544.017037
  Br.Len      logLikelihood       1st Deriv       2nd Deriv
  0.0001     -376662.410545 -2.83159685e+04  5.91239012e+07  *
  0.0010     -376646.551695 -1.25625111e+04  6.20431514e+06  *
  0.0100     -376599.021044 -2.83239213e+03  2.34237874e+05  *
  0.1000     -376540.111656 -8.59168158e+01  4.26252805e+03  *
  1.0000     -376698.940701  1.82819610e+02 -6.06077750e+01  
 10.0000     -377294.479082  2.34907069e+01 -3.18903077e+00  
100.0000     -377685.791460  7.83672273e-01 -1.94496544e-02  

TEST 2: ASC BIAS FELSENSTEIN
Log-L: -377485.067669
  Br.Len      logLikelihood       1st Deriv       2nd Deriv
  0.0001     -376662.410545 -2.83210252e+04  5.91239014e+07  *
  0.0010     -376646.551695 -1.25675677e+04  6.20431530e+06  *
  0.0100     -376599.021044 -2.83744728e+03  2.34238036e+05  *
  0.1000     -376540.111656 -9.09573725e+01  4.26269013e+03  *
  1.0000     -376698.940701  1.77924006e+02 -6.04477684e+01  
 10.0000     -377294.479082  1.99129798e+01 -3.05824283e+00  
100.0000     -377685.791460  5.09767194e-01 -1.37344410e-02  

TEST 2: ASC BIAS STAMATAKIS
Log-L: -377961.619605
  Br.Len      logLikelihood       1st Deriv       2nd Deriv
  0.0001     -378083.985873 -2.83096842e+04  5.91239011e+07  *
  0.0010     -378068.132634 -1.25562269e+04  6.20431504e+06  *
  0.0100     -378020.658081 -2.82610887e+03  2.34237771e+05  *
  0.1000     -377962.309241 -7.96427931e+01  4.26242539e+03  *
  1.0000     -378126.699316  1.89000978e+02 -6.07109990e+01  
 10.0000     -378773.309382  2.87285203e+01 -3.29432956e+00  
100.0000     -379352.893744  1.31819017e+00 -3.19111068e-02  
